{"learner":{"attributes":{"best_iteration":"92","best_score":"0.19221935383870273"},"feature_names":[],"feature_types":[],"gradient_booster":{"model":{"cats":{"enc":[],"feature_segments":[],"sorted_idx":[]},"gbtree_model_param":{"num_parallel_tree":"1","num_trees":"143"},"iteration_indptr":[0,1,2,3,4,5,6,7,8,9,10,11,12,13,14,15,16,17,18,19,20,21,22,23,24,25,26,27,28,29,30,31,32,33,34,35,36,37,38,39,40,41,42,43,44,45,46,47,48,49,50,51,52,53,54,55,56,57,58,59,60,61,62,63,64,65,66,67,68,69,70,71,72,73,74,75,76,77,78,79,80,81,82,83,84,85,86,87,88,89,90,91,92,93,94,95,96,97,98,99,100,101,102,103,104,105,106,107,108,109,110,111,112,113,114,115,116,117,118,119,120,121,122,123,124,125,126,127,128,129,130,131,132,133,134,135,136,137,138,139,140,141,142,143],"tree_info":[0,0,0,0,0,0,0,0,0,0,0,0,0,0,0,0,0,0,0,0,0,0,0,0,0,0,0,0,0,0,0,0,0,0,0,0,0,0,0,0,0,0,0,0,0,0,0,0,0,0,0,0,0,0,0,0,0,0,0,0,0,0,0,0,0,0,0,0,0,0,0,0,0,0,0,0,0,0,0,0,0,0,0,0,0,0,0,0,0,0,0,0,0,0,0,0,0,0,0,0,0,0,0,0,0,0,0,0,0,0,0,0,0,0,0,0,0,0,0,0,0,0,0,0,0,0,0,0,0,0,0,0,0,0,0,0,0,0,0,0,0,0,0],"trees":[{"base_weights":[-0E0,1.3833992E0,-1.2367492E0,1.6538461E0,1.2244898E-1,-2.857143E-1,-1.6059114E0,1.5384616E-1,1.4653179E-1,-1.1538462E-1,1.2777779E-1,-9.5652175E-1,4.7619048E-1,-1.4631902E-1,-1.8181819E-1,-4.6153846E-1,1.0588236E0,-2.857143E-1,-1.22727275E-1,-3.3333334E-1,1.2727273E0,1.22727275E-1,-1.2692308E-1,3.529412E-1,-1.0384616E-1,1.6666668E-2,1.0000001E-1,4.4444445E-1,-8.5714296E-2,-8.888889E-1,6.0000002E-2,1.1470589E-1,1.6666668E-2,-0E0,5.0000004E-2,7.5E-2,-3.0000001E-2,1.6666668E-2,-1.0384616E-1],"categories":[],"categories_nodes":[],"categories_segments":[],"categories_sizes":[],"default_left":[0,0,0,0,0,0,0,0,0,0,0,0,0,0,0,0,0,0,0,0,0,0,0,0,0,0,0,0,0,0,0,0,0,0,0,0,0,0,0],"id":0,"left_children":[1,3,5,7,9,11,13,15,-1,-1,-1,17,19,-1,21,23,25,27,-1,29,31,-1,-1,33,-1,-1,-1,35,-1,37,-1,-1,-1,-1,-1,-1,-1,-1,-1],"loss_changes":[2.2926297E2,2.1367012E1,2.4380508E1,2.3092484E1,3.4793533E1,1.1188405E1,2.4580017E1,5.918552E0,0E0,0E0,0E0,4.7769623E0,7.1948056E0,0E0,3.2979023E1,5.3755655E0,6.79739E-1,4.888889E0,0E0,4.488889E0,1.1431961E0,0E0,0E0,4.705882E-1,0E0,0E0,0E0,2.5111113E0,0E0,2.7863247E0,0E0,0E0,0E0,0E0,0E0,0E0,0E0,0E0,0E0],"parents":[2147483647,0,0,1,1,2,2,3,3,4,4,5,5,6,6,7,7,11,11,12,12,14,14,15,15,16,16,17,17,19,19,20,20,23,23,27,27,29,29],"right_children":[2,4,6,8,10,12,14,16,-1,-1,-1,18,20,-1,22,24,26,28,-1,30,32,-1,-1,34,-1,-1,-1,36,-1,38,-1,-1,-1,-1,-1,-1,-1,-1,-1],"split_conditions":[1E0,5.95E2,1.58E2,1.61E2,6.47E2,5.9E0,5.99E2,2E0,1.4653179E-1,-1.1538462E-1,1.2777779E-1,2E1,2E0,-1.4631902E-1,6.45E2,1.19E2,1.17E2,5.7E0,-1.22727275E-1,5.7E1,4.8E0,1.22727275E-1,-1.2692308E-1,8E1,-1.0384616E-1,1.6666668E-2,1.0000001E-1,5.6E0,-8.5714296E-2,2.7E1,6.0000002E-2,1.1470589E-1,1.6666668E-2,-0E0,5.0000004E-2,7.5E-2,-3.0000001E-2,1.6666668E-2,-1.0384616E-1],"split_indices":[2,0,0,0,0,7,0,9,0,0,0,1,9,0,0,0,0,4,0,3,4,0,0,0,0,0,0,7,0,3,0,0,0,0,0,0,0,0,0],"split_type":[0,0,0,0,0,0,0,0,0,0,0,0,0,0,0,0,0,0,0,0,0,0,0,0,0,0,0,0,0,0,0,0,0,0,0,0,0,0,0],"sum_hessian":[1.32E2,6.225E1,6.975E1,5.1E1,1.125E1,2E1,4.975E1,8.75E0,4.225E1,5.5E0,5.75E0,1.05E1,9.5E0,3.975E1,1E1,5.5E0,3.25E0,6E0,4.5E0,5E0,4.5E0,4.5E0,5.5E0,3.25E0,2.25E0,1.25E0,2E0,3.5E0,2.5E0,3.5E0,1.5E0,3.25E0,1.25E0,2E0,1.25E0,2E0,1.5E0,1.25E0,2.25E0],"tree_param":{"num_deleted":"0","num_feature":"12","num_nodes":"39","size_leaf_vector":"1"}},{"base_weights":[9.184813E-5,1.2890266E0,-1.1518997E0,1.5410961E0,1.1469116E-1,-2.6767892E-1,-1.4960415E0,1.4892974E-1,1.3652855E-1,-1.18123375E-1,1.1235991E-1,-9.0099084E-1,4.5120484E-1,-1.3634276E-1,-1.6918519E-1,-4.356956E-1,1.0081066E0,-2.7040994E-1,-1.1556086E-1,-3.1328478E-1,1.2035862E0,1.1556085E-1,-1.19284555E-1,3.383005E-1,-9.864277E-2,1.5972849E-2,9.516251E-2,4.214207E-1,-8.1231706E-2,-8.427922E-1,5.7331752E-2,1.08406454E-1,1.5972849E-2,-9.374533E-4,4.9173668E-2,7.131855E-2,-2.8653966E-2,1.5972849E-2,-9.864277E-2],"categories":[],"categories_nodes":[],"categories_segments":[],"categories_sizes":[],"default_left":[0,0,0,0,0,0,0,0,0,0,0,0,0,0,0,0,0,0,0,0,0,0,0,0,0,0,0,0,0,0,0,0,0,0,0,0,0,0,0],"id":1,"left_children":[1,3,5,7,9,11,13,15,-1,-1,-1,17,19,-1,21,23,25,27,-1,29,31,-1,-1,33,-1,-1,-1,35,-1,37,-1,-1,-1,-1,-1,-1,-1,-1,-1],"loss_changes":[1.9811734E2,1.8463387E1,2.1039162E1,1.9854523E1,3.0897196E1,9.94784E0,2.1258766E1,5.3306346E0,0E0,0E0,0E0,4.2131834E0,6.406042E0,0E0,2.9089966E1,4.865241E0,6.0980225E-1,4.387743E0,0E0,4.063902E0,1.0071902E0,0E0,0E0,4.8124272E-1,0E0,0E0,0E0,2.276413E0,0E0,2.521598E0,0E0,0E0,0E0,0E0,0E0,0E0,0E0,0E0,0E0],"parents":[2147483647,0,0,1,1,2,2,3,3,4,4,5,5,6,6,7,7,11,11,12,12,14,14,15,15,16,16,17,17,19,19,20,20,23,23,27,27,29,29],"right_children":[2,4,6,8,10,12,14,16,-1,-1,-1,18,20,-1,22,24,26,28,-1,30,32,-1,-1,34,-1,-1,-1,36,-1,38,-1,-1,-1,-1,-1,-1,-1,-1,-1],"split_conditions":[1E0,5.95E2,1.58E2,1.61E2,6.45E2,5.9E0,5.99E2,2E0,1.3652855E-1,-1.18123375E-1,1.1235991E-1,2E1,2E0,-1.3634276E-1,6.45E2,1.19E2,1.17E2,5.7E0,-1.1556086E-1,5.7E1,4.8E0,1.1556085E-1,-1.19284555E-1,3E0,-9.864277E-2,1.5972849E-2,9.516251E-2,5.6E0,-8.1231706E-2,2.7E1,5.7331752E-2,1.08406454E-1,1.5972849E-2,-9.374533E-4,4.9173668E-2,7.131855E-2,-2.8653966E-2,1.5972849E-2,-9.864277E-2],"split_indices":[2,0,0,0,0,7,0,9,0,0,0,1,9,0,0,0,0,4,0,3,4,0,0,4,0,0,0,7,0,3,0,0,0,0,0,0,0,0,0],"split_type":[0,0,0,0,0,0,0,0,0,0,0,0,0,0,0,0,0,0,0,0,0,0,0,0,0,0,0,0,0,0,0,0,0,0,0,0,0,0,0],"sum_hessian":[1.3142656E2,6.197043E1,6.945613E1,5.07621E1,1.1208328E1,1.9957119E1,4.9499012E1,8.738086E0,4.2024017E1,4.983395E0,6.224933E0,1.0475364E1,9.481755E0,3.9538006E1,9.961006E0,5.493164E0,3.2449214E0,5.992266E0,4.4830976E0,4.992509E0,4.489246E0,4.483098E0,5.4779086E0,3.2492192E0,2.2439451E0,1.2499132E0,1.9950083E0,3.4968526E0,2.4954135E0,3.4938583E0,1.4986508E0,3.239333E0,1.2499132E0,1.9995315E0,1.2496877E0,1.9971901E0,1.4996626E0,1.2499132E0,2.2439451E0],"tree_param":{"num_deleted":"0","num_feature":"12","num_nodes":"39","size_leaf_vector":"1"}},{"base_weights":[5.603115E-5,1.2103906E0,-1.0810376E0,1.4479892E0,1.0657392E-1,-2.5174302E-1,-1.4062097E0,1.4446416E-1,1.2841E-1,-1.0302702E-1,1.1389432E-1,-8.5212123E-1,4.2895886E-1,-1.2824203E-1,-1.5845552E-1,-4.1204682E-1,9.620328E-1,-2.564679E-1,-1.094329E-1,-2.951536E-1,1.142416E0,1.094329E-1,-1.1280889E-1,3.2438937E-1,-9.403084E-2,1.5309072E-2,9.0845786E-2,4.0013853E-1,-7.7173784E-2,-8.0119234E-1,5.4839112E-2,1.0293408E-1,1.5309072E-2,-8.9266093E-4,4.715732E-2,6.7938656E-2,-2.737545E-2,1.5309072E-2,-9.403084E-2],"categories":[],"categories_nodes":[],"categories_segments":[],"categories_sizes":[],"default_left":[0,0,0,0,0,0,0,0,0,0,0,0,0,0,0,0,0,0,0,0,0,0,0,0,0,0,0,0,0,0,0,0,0,0,0,0,0,0,0],"id":2,"left_children":[1,3,5,7,9,11,13,15,-1,-1,-1,17,19,-1,21,23,25,27,-1,29,31,-1,-1,33,-1,-1,-1,35,-1,37,-1,-1,-1,-1,-1,-1,-1,-1,-1],"loss_changes":[1.7256325E2,1.6164078E1,1.8430557E1,1.7354424E1,2.7377785E1,8.88181E0,1.8607246E1,4.812361E0,0E0,0E0,0E0,3.750164E0,5.7261696E0,0E0,2.5820923E1,4.4202485E0,5.519626E-1,3.9475489E0,0E0,3.6872895E0,8.982649E-1,0E0,0E0,4.422899E-1,0E0,0E0,0E0,2.06725E0,0E0,2.2926471E0,0E0,0E0,0E0,0E0,0E0,0E0,0E0,0E0,0E0],"parents":[2147483647,0,0,1,1,2,2,3,3,4,4,5,5,6,6,7,7,11,11,12,12,14,14,15,15,16,16,17,17,19,19,20,20,23,23,27,27,29,29],"right_children":[2,4,6,8,10,12,14,16,-1,-1,-1,18,20,-1,22,24,26,28,-1,30,32,-1,-1,34,-1,-1,-1,36,-1,38,-1,-1,-1,-1,-1,-1,-1,-1,-1],"split_conditions":[1E0,5.95E2,1.58E2,1.61E2,6.47E2,5.9E0,5.99E2,2E0,1.2841E-1,-1.0302702E-1,1.1389432E-1,2E1,2E0,-1.2824203E-1,6.45E2,1.19E2,1.17E2,5.7E0,-1.094329E-1,5.7E1,4.8E0,1.094329E-1,-1.1280889E-1,8E1,-9.403084E-2,1.5309072E-2,9.0845786E-2,5.6E0,-7.7173784E-2,2.7E1,5.4839112E-2,1.0293408E-1,1.5309072E-2,-8.9266093E-4,4.715732E-2,6.7938656E-2,-2.737545E-2,1.5309072E-2,-9.403084E-2],"split_indices":[2,0,0,0,0,7,0,9,0,0,0,1,9,0,0,0,0,4,0,3,4,0,0,0,0,0,0,7,0,3,0,0,0,0,0,0,0,0,0],"split_type":[0,0,0,0,0,0,0,0,0,0,0,0,0,0,0,0,0,0,0,0,0,0,0,0,0,0,0,0,0,0,0,0,0,0,0,0,0,0,0],"sum_hessian":[1.298802E2,6.122093E1,6.865927E1,5.012058E1,1.1100351E1,1.983859E1,4.882068E1,8.705705E0,4.141487E1,5.4324565E0,5.6678953E0,1.0407426E1,9.431165E0,3.8966473E1,9.854205E0,5.4749613E0,3.2307432E0,5.9707055E0,4.436721E0,4.9716096E0,4.4595547E0,4.436721E0,5.4174848E0,3.247868E0,2.2270932E0,1.2496672E0,1.9810761E0,3.4880443E0,2.4826612E0,3.4767604E0,1.4948492E0,3.2098875E0,1.2496672E0,1.9995465E0,1.2483214E0,1.9893335E0,1.4987108E0,1.2496672E0,2.2270932E0],"tree_param":{"num_deleted":"0","num_feature":"12","num_nodes":"39","size_leaf_vector":"1"}},{"base_weights":[1.7088397E-4,1.1443143E0,-1.0208194E0,1.3696793E0,1.0100098E-1,-2.3753212E-1,-1.3314115E0,1.4035636E-1,1.216966E-1,-1.066321E-1,1.01153806E-1,-8.086756E-1,4.0897584E-1,-1.2154031E-1,-1.4920859E-1,-3.9040846E-1,9.199309E-1,-2.4369207E-1,-1.0412647E-1,-2.786812E-1,1.0877838E0,1.0412647E-1,-1.0724334E-1,3.111635E-1,-8.991019E-2,1.467388E-2,8.6965956E-2,-8.923776E-1,4.6663672E-1,-7.634131E-1,5.2503694E-2,9.8129585E-2,1.467388E-2,-1.7465496E-3,4.6422746E-2,-9.209926E-3,-8.9716785E-2,5.7673387E-2,-1.6998622E-3,1.467388E-2,-8.991019E-2],"categories":[],"categories_nodes":[],"categories_segments":[],"categories_sizes":[],"default_left":[0,0,0,0,0,0,0,0,0,0,0,0,0,0,0,0,0,0,0,0,0,0,0,0,0,0,0,0,0,0,0,0,0,0,0,0,0,0,0,0,0],"id":3,"left_children":[1,3,5,7,9,11,13,15,-1,-1,-1,17,19,-1,21,23,25,27,-1,29,31,-1,-1,33,-1,-1,-1,35,37,39,-1,-1,-1,-1,-1,-1,-1,-1,-1,-1,-1],"loss_changes":[1.513573E2,1.4227768E1,1.6341217E1,1.53713455E1,2.4590303E1,7.9587197E0,1.6442215E1,4.3542514E0,0E0,0E0,0E0,3.3638992E0,5.1362085E0,0E0,2.3041794E1,4.029089E0,5.035858E-1,3.6131098E0,0E0,3.3522449E0,8.096428E-1,0E0,0E0,4.5143706E-1,0E0,0E0,0E0,7.813046E-1,6.0445195E-1,2.092945E0,0E0,0E0,0E0,0E0,0E0,0E0,0E0,0E0,0E0,0E0,0E0],"parents":[2147483647,0,0,1,1,2,2,3,3,4,4,5,5,6,6,7,7,11,11,12,12,14,14,15,15,16,16,17,17,19,19,20,20,23,23,27,27,28,28,29,29],"right_children":[2,4,6,8,10,12,14,16,-1,-1,-1,18,20,-1,22,24,26,28,-1,30,32,-1,-1,34,-1,-1,-1,36,38,40,-1,-1,-1,-1,-1,-1,-1,-1,-1,-1,-1],"split_conditions":[1E0,5.95E2,1.58E2,1.61E2,6.45E2,5.9E0,5.99E2,2E0,1.216966E-1,-1.066321E-1,1.01153806E-1,2E1,2E0,-1.2154031E-1,6.45E2,1.19E2,1.17E2,2E0,-1.0412647E-1,5.7E1,4.8E0,1.0412647E-1,-1.0724334E-1,3E0,-8.991019E-2,1.467388E-2,8.6965956E-2,2.5E1,5.4E0,2.7E1,5.2503694E-2,9.8129585E-2,1.467388E-2,-1.7465496E-3,4.6422746E-2,-9.209926E-3,-8.9716785E-2,5.7673387E-2,-1.6998622E-3,1.467388E-2,-8.991019E-2],"split_indices":[2,0,0,0,0,7,0,9,0,0,0,1,9,0,0,0,0,5,0,3,4,0,0,4,0,0,0,3,7,3,0,0,0,0,0,0,0,0,0,0,0],"split_type":[0,0,0,0,0,0,0,0,0,0,0,0,0,0,0,0,0,0,0,0,0,0,0,0,0,0,0,0,0,0,0,0,0,0,0,0,0,0,0,0,0],"sum_hessian":[1.2756906E2,6.00995E1,6.746956E1,4.9166317E1,1.0933181E1,1.9658134E1,4.7811424E1,8.655353E0,4.0510963E1,4.86106E0,6.0721207E0,1.0304241E1,9.353894E0,3.8118244E1,9.693182E0,5.44642E0,3.2089326E0,5.9375696E0,4.366671E0,4.939479E0,4.414416E0,4.366671E0,5.326511E0,3.2451618E0,2.2012584E0,1.2492819E0,1.9596509E0,2.9694889E0,2.968081E0,3.4505403E0,1.4889387E0,3.1651337E0,1.2492819E0,1.9982657E0,1.246896E0,1.2380121E0,1.7314768E0,1.4812348E0,1.4868461E0,1.2492819E0,2.2012584E0],"tree_param":{"num_deleted":"0","num_feature":"12","num_nodes":"41","size_leaf_vector":"1"}},{"base_weights":[8.4026986E-5,1.0873121E0,-9.6864724E-1,1.3027519E0,9.4645806E-2,-2.2488876E-1,-1.2681761E0,1.3656187E-1,1.1605895E-1,-9.362286E-2,1.0360665E-1,-7.6876193E-1,3.908793E-1,-1.1591004E-1,-1.4113659E-1,-2.3848428E-1,8.772835E-2,-2.3229215E-1,-9.947959E-2,-2.6365423E-1,1.0385711E0,9.9479586E-2,-1.0240192E-1,7.3960054E-1,-8.2305664E-1,3.848454E-1,-7.2251216E-2,-7.289049E-1,5.0309718E-2,9.387098E-2,1.4065905E-2,1.38245905E-2,7.2643034E-2,-8.605568E-2,1.103459E-2,6.408579E-2,-2.4686562E-2,1.4065905E-2,-8.620113E-2],"categories":[],"categories_nodes":[],"categories_segments":[],"categories_sizes":[],"default_left":[0,0,0,0,0,0,0,0,0,0,0,0,0,0,0,0,0,0,0,0,0,0,0,0,0,0,0,0,0,0,0,0,0,0,0,0,0,0,0],"id":4,"left_children":[1,3,5,7,9,11,13,15,-1,-1,-1,17,19,-1,21,23,-1,25,-1,27,29,-1,-1,31,33,35,-1,37,-1,-1,-1,-1,-1,-1,-1,-1,-1,-1,-1],"loss_changes":[1.3344621E2,1.264402E1,1.4641338E1,1.3764572E1,2.1985218E1,7.149842E0,1.4642166E1,3.9952204E0,0E0,0E0,0E0,3.041512E0,4.621251E0,0E0,2.0656261E1,5.1068816E0,0E0,3.4923882E0,0E0,3.0531478E0,7.3648643E-1,0E0,0E0,2.6261437E-1,1.8672962E0,1.778924E0,0E0,1.9174263E0,0E0,0E0,0E0,0E0,0E0,0E0,0E0,0E0,0E0,0E0,0E0],"parents":[2147483647,0,0,1,1,2,2,3,3,4,4,5,5,6,6,7,7,11,11,12,12,14,14,15,15,17,17,19,19,20,20,23,23,24,24,25,25,27,27],"right_children":[2,4,6,8,10,12,14,16,-1,-1,-1,18,20,-1,22,24,-1,26,-1,28,30,-1,-1,32,34,36,-1,38,-1,-1,-1,-1,-1,-1,-1,-1,-1,-1,-1],"split_conditions":[1E0,5.95E2,1.58E2,1.61E2,6.47E2,5.9E0,5.99E2,6.5E1,1.1605895E-1,-9.362286E-2,1.0360665E-1,2E1,2E0,-1.1591004E-1,6.45E2,1.2E1,8.772835E-2,5.7E0,-9.947959E-2,5.7E1,4.8E0,9.9479586E-2,-1.0240192E-1,9.9E1,2E0,5.6E0,-7.2251216E-2,2.7E1,5.0309718E-2,9.387098E-2,1.4065905E-2,1.38245905E-2,7.2643034E-2,-8.605568E-2,1.103459E-2,6.408579E-2,-2.4686562E-2,1.4065905E-2,-8.620113E-2],"split_indices":[2,0,0,0,0,7,0,3,0,0,0,1,9,0,0,3,0,4,0,3,4,0,0,0,5,7,0,3,0,0,0,0,0,0,0,0,0,0,0],"split_type":[0,0,0,0,0,0,0,0,0,0,0,0,0,0,0,0,0,0,0,0,0,0,0,0,0,0,0,0,0,0,0,0,0,0,0,0,0,0,0],"sum_hessian":[1.2470165E2,5.8699512E1,6.600214E1,4.7975044E1,1.0724468E1,1.9451937E1,4.65502E1,8.590882E0,3.9384163E1,5.2623186E0,5.462149E0,1.01970215E1,9.254914E0,3.706071E1,9.489492E0,6.8671784E0,1.7237036E0,5.919113E0,4.2779083E0,4.898054E0,4.3568606E0,4.277909E0,5.211583E0,2.4697256E0,4.397453E0,3.4664302E0,2.4526832E0,3.4168253E0,1.4812286E0,3.1080854E0,1.2487752E0,1.2480805E0,1.2216451E0,3.158748E0,1.2387048E0,1.9723641E0,1.494066E0,1.2487752E0,2.16805E0],"tree_param":{"num_deleted":"0","num_feature":"12","num_nodes":"39","size_leaf_vector":"1"}},{"base_weights":[5.791337E-4,1.0387005E0,-9.231788E-1,1.2454711E0,9.047571E-2,-2.1323465E-1,-1.2140182E0,1.3759646E-1,1.1126293E-1,-9.783578E-2,9.253378E-2,-7.3316324E-1,3.7436822E-1,-1.111183E-1,-1.3400933E-1,-3.562818E-1,8.6030984E-1,-2.2114456E-1,-9.5369056E-2,-2.498961E-1,9.938932E-1,9.536905E-2,-9.8144785E-2,2.806297E-1,-8.284523E-2,1.3762753E-2,8.1546195E-2,3.6645854E-1,-6.895784E-2,-6.9721824E-1,4.8243478E-2,9.006324E-2,1.3483885E-2,-3.0011658E-3,4.3806795E-2,6.1248094E-2,-2.360124E-2,1.3483885E-2,-8.2839705E-2],"categories":[],"categories_nodes":[],"categories_segments":[],"categories_sizes":[],"default_left":[0,0,0,0,0,0,0,0,0,0,0,0,0,0,0,0,0,0,0,0,0,0,0,0,0,0,0,0,0,0,0,0,0,0,0,0,0,0,0],"id":5,"left_children":[1,3,5,7,9,11,13,15,-1,-1,-1,17,19,-1,21,23,25,27,-1,29,31,-1,-1,33,-1,-1,-1,35,-1,37,-1,-1,-1,-1,-1,-1,-1,-1,-1],"loss_changes":[1.18321526E2,1.1277786E1,1.3221836E1,1.2352966E1,1.9916424E1,6.4417176E0,1.3123291E1,3.7057953E0,0E0,0E0,0E0,2.7645612E0,4.1694274E0,0E0,1.8591524E1,3.3434544E0,4.393685E-1,3.157232E0,0E0,2.785307E0,6.752806E-1,0E0,0E0,4.3551704E-1,0E0,0E0,0E0,1.6207747E0,0E0,1.7621171E0,0E0,0E0,0E0,0E0,0E0,0E0,0E0,0E0,0E0],"parents":[2147483647,0,0,1,1,2,2,3,3,4,4,5,5,6,6,7,7,11,11,12,12,14,14,15,15,16,16,17,17,19,19,20,20,23,23,27,27,29,29],"right_children":[2,4,6,8,10,12,14,16,-1,-1,-1,18,20,-1,22,24,26,28,-1,30,32,-1,-1,34,-1,-1,-1,36,-1,38,-1,-1,-1,-1,-1,-1,-1,-1,-1],"split_conditions":[1E0,5.95E2,1.58E2,1.61E2,6.45E2,5.9E0,5.99E2,2E0,1.1126293E-1,-9.783578E-2,9.253378E-2,2E1,2E0,-1.111183E-1,6.45E2,1.19E2,1.17E2,5.7E0,-9.5369056E-2,5.7E1,4.8E0,9.536905E-2,-9.8144785E-2,3E0,-8.284523E-2,1.3762753E-2,8.1546195E-2,5.6E0,-6.895784E-2,2.7E1,4.8243478E-2,9.006324E-2,1.3483885E-2,-3.0011658E-3,4.3806795E-2,6.1248094E-2,-2.360124E-2,1.3483885E-2,-8.2839705E-2],"split_indices":[2,0,0,0,0,7,0,9,0,0,0,1,9,0,0,0,0,4,0,3,4,0,0,4,0,0,0,7,0,3,0,0,0,0,0,0,0,0,0],"split_type":[0,0,0,0,0,0,0,0,0,0,0,0,0,0,0,0,0,0,0,0,0,0,0,0,0,0,0,0,0,0,0,0,0,0,0,0,0,0,0],"sum_hessian":[1.21383675E2,5.7095352E1,6.428832E1,4.661662E1,1.0478734E1,1.9186619E1,4.5101704E1,8.523603E0,3.8093014E1,4.656437E0,5.8222966E0,1.0048068E1,9.138551E0,3.5848785E1,9.252917E0,5.3646216E0,3.1589818E0,5.873419E0,4.1746492E0,4.8490443E0,4.2895064E0,4.1746492E0,5.0782685E0,3.235667E0,2.1289546E0,1.2475157E0,1.9114661E0,3.4475589E0,2.4258597E0,3.3770468E0,1.4719975E0,3.0413423E0,1.2481639E0,1.9954038E0,1.2402632E0,1.9559169E0,1.491642E0,1.2481639E0,2.128883E0],"tree_param":{"num_deleted":"0","num_feature":"12","num_nodes":"39","size_leaf_vector":"1"}},{"base_weights":[5.528601E-4,9.9503165E-1,-8.8298076E-1,1.1945566E0,8.525315E-2,-2.0261864E-1,-1.1671085E0,1.3402684E-1,1.0713739E-1,-8.6168595E-2,9.564102E-2,-7.0077133E-1,3.592E-1,-1.06994644E-1,-1.2765095E-1,-2.1943145E-1,8.2617395E-2,-2.1081042E-1,-9.169948E-2,-2.3725928E-1,9.530437E-1,9.169948E-2,-9.436479E-2,6.9227356E-1,-7.68806E-1,-7.9920244E-1,4.2970434E-1,-6.679825E-1,4.6293113E-2,8.6631395E-2,1.2926609E-2,1.2757392E-2,6.836307E-2,-8.022996E-2,9.383921E-3,-4.6046264E-3,-8.334271E-2,5.4227453E-2,-2.6614438E-3,1.2926609E-2,-7.9774074E-2],"categories":[],"categories_nodes":[],"categories_segments":[],"categories_sizes":[],"default_left":[0,0,0,0,0,0,0,0,0,0,0,0,0,0,0,0,0,0,0,0,0,0,0,0,0,0,0,0,0,0,0,0,0,0,0,0,0,0,0,0,0],"id":6,"left_children":[1,3,5,7,9,11,13,15,-1,-1,-1,17,19,-1,21,23,-1,25,-1,27,29,-1,-1,31,33,35,37,39,-1,-1,-1,-1,-1,-1,-1,-1,-1,-1,-1,-1,-1],"loss_changes":[1.052122E2,1.0124096E1,1.2020988E1,1.1252159E1,1.7927294E1,5.8182144E0,1.1825779E1,3.4698298E0,0E0,0E0,0E0,2.524559E0,3.7711806E0,0E0,1.6791561E1,4.412725E0,0E0,2.9138792E0,0E0,2.5447884E0,6.234212E-1,0E0,0E0,2.3868203E-1,1.5617919E0,8.306823E-1,5.6000006E-1,1.6238574E0,0E0,0E0,0E0,0E0,0E0,0E0,0E0,0E0,0E0,0E0,0E0,0E0,0E0],"parents":[2147483647,0,0,1,1,2,2,3,3,4,4,5,5,6,6,7,7,11,11,12,12,14,14,15,15,17,17,19,19,20,20,23,23,24,24,25,25,26,26,27,27],"right_children":[2,4,6,8,10,12,14,16,-1,-1,-1,18,20,-1,22,24,-1,26,-1,28,30,-1,-1,32,34,36,38,40,-1,-1,-1,-1,-1,-1,-1,-1,-1,-1,-1,-1,-1],"split_conditions":[1E0,5.95E2,1.58E2,1.61E2,6.47E2,5.9E0,5.99E2,6.5E1,1.0713739E-1,-8.6168595E-2,9.564102E-2,2E1,2E0,-1.06994644E-1,6.45E2,1.2E1,8.2617395E-2,2E0,-9.169948E-2,5.7E1,4.8E0,9.169948E-2,-9.436479E-2,3E0,2E0,2.5E1,5.4E0,2.7E1,4.6293113E-2,8.6631395E-2,1.2926609E-2,1.2757392E-2,6.836307E-2,-8.022996E-2,9.383921E-3,-4.6046264E-3,-8.334271E-2,5.4227453E-2,-2.6614438E-3,1.2926609E-2,-7.9774074E-2],"split_indices":[2,0,0,0,0,7,0,3,0,0,0,1,9,0,0,3,0,5,0,3,4,0,0,4,5,3,7,3,0,0,0,0,0,0,0,0,0,0,0,0,0],"split_type":[0,0,0,0,0,0,0,0,0,0,0,0,0,0,0,0,0,0,0,0,0,0,0,0,0,0,0,0,0,0,0,0,0,0,0,0,0,0,0,0,0],"sum_hessian":[1.1774233E2,5.533393E1,6.24084E1,4.5124573E1,1.0209357E1,1.8889477E1,4.3518925E1,8.439352E0,3.6685223E1,5.0285196E0,5.1808376E0,9.880935E0,9.008543E0,3.4527225E1,8.9917E0,6.7475595E0,1.691792E0,5.8204756E0,4.0604596E0,4.793948E0,4.2145944E0,4.0604596E0,4.9312406E0,2.4393187E0,4.308241E0,2.9045434E0,2.9159324E0,3.3324544E0,1.4614937E0,2.967132E0,1.2474625E0,1.2464296E0,1.192889E0,3.0760608E0,1.2321805E0,1.2189882E0,1.6855551E0,1.448377E0,1.4675553E0,1.2474625E0,2.084992E0],"tree_param":{"num_deleted":"0","num_feature":"12","num_nodes":"41","size_leaf_vector":"1"}},{"base_weights":[9.766755E-4,9.572478E-1,-8.467875E-1,1.1502686E0,8.2039505E-2,-1.929573E-1,-1.12607E0,1.3505939E-1,1.0355413E-1,-9.084465E-2,8.5637465E-2,-6.699614E-1,3.4517765E-1,-1.0341143E-1,-1.21925645E-1,-3.2736015E-1,8.088006E-1,-2.0134562E-1,-8.839601E-2,-2.2561966E-1,9.154531E-1,8.839601E-2,-9.097847E-2,2.531402E-1,-7.695092E-2,7.952127E-2,1.4927155E-2,3.538528E-1,-6.500575E-2,-6.408905E-1,4.444828E-2,8.351563E-2,1.2392949E-2,-4.3120715E-3,4.162998E-2,6.341504E-2,-2.0227997E-2,1.2392949E-2,-7.6961815E-2],"categories":[],"categories_nodes":[],"categories_segments":[],"categories_sizes":[],"default_left":[0,0,0,0,0,0,0,0,0,0,0,0,0,0,0,0,0,0,0,0,0,0,0,0,0,0,0,0,0,0,0,0,0,0,0,0,0,0,0],"id":7,"left_children":[1,3,5,7,9,11,13,15,-1,-1,-1,17,19,-1,21,23,25,27,-1,29,31,-1,-1,33,-1,-1,-1,35,-1,37,-1,-1,-1,-1,-1,-1,-1,-1,-1],"loss_changes":[9.396748E1,9.107235E0,1.100214E1,1.02363205E1,1.6348845E1,5.2614937E0,1.070583E1,3.177882E0,0E0,0E0,0E0,2.3199005E0,3.4187288E0,0E0,1.5212536E1,2.797206E0,4.167366E-1,2.8150787E0,0E0,2.3282623E0,5.789623E-1,0E0,0E0,4.2764163E-1,0E0,0E0,0E0,1.5805962E0,0E0,1.5001066E0,0E0,0E0,0E0,0E0,0E0,0E0,0E0,0E0,0E0],"parents":[2147483647,0,0,1,1,2,2,3,3,4,4,5,5,6,6,7,7,11,11,12,12,14,14,15,15,16,16,17,17,19,19,20,20,23,23,27,27,29,29],"right_children":[2,4,6,8,10,12,14,16,-1,-1,-1,18,20,-1,22,24,26,28,-1,30,32,-1,-1,34,-1,-1,-1,36,-1,38,-1,-1,-1,-1,-1,-1,-1,-1,-1],"split_conditions":[1E0,5.95E2,1.58E2,1.61E2,6.45E2,5.9E0,5.99E2,2E0,1.0355413E-1,-9.084465E-2,8.5637465E-2,2E1,2E0,-1.0341143E-1,6.45E2,1.19E2,5E1,5.7E0,-8.839601E-2,5.7E1,4.8E0,8.839601E-2,-9.097847E-2,8E1,-7.695092E-2,7.952127E-2,1.4927155E-2,7.8E1,-6.500575E-2,2.7E1,4.444828E-2,8.351563E-2,1.2392949E-2,-4.3120715E-3,4.162998E-2,6.341504E-2,-2.0227997E-2,1.2392949E-2,-7.6961815E-2],"split_indices":[2,0,0,0,0,7,0,9,0,0,0,1,9,0,0,0,3,4,0,3,4,0,0,0,0,0,0,0,0,3,0,0,0,0,0,0,0,0,0],"split_type":[0,0,0,0,0,0,0,0,0,0,0,0,0,0,0,0,0,0,0,0,0,0,0,0,0,0,0,0,0,0,0,0,0,0,0,0,0,0,0],"sum_hessian":[1.13910286E2,5.346879E1,6.04415E1,4.3549892E1,9.918893E0,1.8596352E1,4.184515E1,8.350353E0,3.5199543E1,4.4029284E0,5.5159645E0,9.728243E0,8.868108E0,3.3132404E1,8.712746E0,5.2566133E0,3.0937395E0,5.789905E0,3.9383383E0,4.7340713E0,4.1340365E0,3.9383383E0,4.774408E0,3.219363E0,2.0372505E0,1.6672926E0,1.426447E0,3.4115577E0,2.3783474E0,3.2841325E0,1.4499385E0,2.8873525E0,1.2466842E0,1.9858308E0,1.2335322E0,1.7084516E0,1.7031062E0,1.2466842E0,2.0374484E0],"tree_param":{"num_deleted":"0","num_feature":"12","num_nodes":"39","size_leaf_vector":"1"}},{"base_weights":[1.0328215E-3,9.2221075E-1,-8.1397504E-1,1.1096199E0,7.757118E-2,-1.834414E-1,-1.0898443E0,1.3193737E-1,1.0041513E-1,-8.005775E-2,8.924818E-2,-6.4065063E-1,3.321397E-1,-1.0027095E-1,-1.1672642E-1,-2.0970406E-1,7.9238966E-2,-1.9073606E-1,-8.539903E-2,-2.1487232E-1,8.8065785E-1,8.539903E-2,-8.791993E-2,6.3886833E-1,-7.2404045E-1,-7.5346553E-1,4.1604716E-1,-6.156859E-1,4.2699963E-2,8.0667645E-2,1.1881813E-2,1.0588644E-2,6.4494334E-2,-7.511739E-2,7.4573415E-3,-3.925342E-3,-7.9065114E-2,5.3046454E-2,-3.1781057E-3,1.1881813E-2,-7.436802E-2],"categories":[],"categories_nodes":[],"categories_segments":[],"categories_sizes":[],"default_left":[0,0,0,0,0,0,0,0,0,0,0,0,0,0,0,0,0,0,0,0,0,0,0,0,0,0,0,0,0,0,0,0,0,0,0,0,0,0,0,0,0],"id":8,"left_children":[1,3,5,7,9,11,13,15,-1,-1,-1,17,19,-1,21,23,-1,25,-1,27,29,-1,-1,31,33,35,37,39,-1,-1,-1,-1,-1,-1,-1,-1,-1,-1,-1,-1,-1],"loss_changes":[8.4043755E1,8.2320175E0,1.0131588E1,9.445614E0,1.4793779E1,4.7575626E0,9.730568E0,3.147767E0,0E0,0E0,0E0,2.1488175E0,3.1056745E0,0E0,1.3819678E1,3.779038E0,0E0,2.6179311E0,0E0,2.1328952E0,5.404203E-1,0E0,0E0,2.525252E-1,1.2879286E0,7.5815773E-1,5.495408E-1,1.3888056E0,0E0,0E0,0E0,0E0,0E0,0E0,0E0,0E0,0E0,0E0,0E0,0E0,0E0],"parents":[2147483647,0,0,1,1,2,2,3,3,4,4,5,5,6,6,7,7,11,11,12,12,14,14,15,15,17,17,19,19,20,20,23,23,24,24,25,25,26,26,27,27],"right_children":[2,4,6,8,10,12,14,16,-1,-1,-1,18,20,-1,22,24,-1,26,-1,28,30,-1,-1,32,34,36,38,40,-1,-1,-1,-1,-1,-1,-1,-1,-1,-1,-1,-1,-1],"split_conditions":[1E0,5.95E2,1.58E2,1.61E2,6.47E2,5.9E0,5.99E2,6.5E1,1.0041513E-1,-8.005775E-2,8.924818E-2,2E1,2E0,-1.0027095E-1,6.45E2,1.2E1,7.9238966E-2,2E0,-8.539903E-2,5.7E1,4.8E0,8.539903E-2,-8.791993E-2,3E0,2E0,2.5E1,5.4E0,2.7E1,4.2699963E-2,8.0667645E-2,1.1881813E-2,1.0588644E-2,6.4494334E-2,-7.511739E-2,7.4573415E-3,-3.925342E-3,-7.9065114E-2,5.3046454E-2,-3.1781057E-3,1.1881813E-2,-7.436802E-2],"split_indices":[2,0,0,0,0,7,0,3,0,0,0,1,9,0,0,3,0,5,0,3,4,0,0,4,9,3,7,3,0,0,0,0,0,0,0,0,0,0,0,0,0],"split_type":[0,0,0,0,0,0,0,0,0,0,0,0,0,0,0,0,0,0,0,0,0,0,0,0,0,0,0,0,0,0,0,0,0,0,0,0,0,0,0,0,0],"sum_hessian":[1.0994397E2,5.1548626E1,5.839534E1,4.193119E1,9.617437E0,1.8279716E1,4.0115623E1,8.263808E0,3.366738E1,4.7591877E0,4.8582497E0,9.559724E0,8.719994E0,3.1693808E1,8.421815E0,6.5987144E0,1.6650937E0,5.748929E0,3.810795E0,4.6705427E0,4.0494504E0,3.8107958E0,4.6110196E0,2.3988597E0,4.1998544E0,2.8573194E0,2.8916094E0,3.2330148E0,1.4375279E0,2.8036096E0,1.245841E0,1.2417805E0,1.1570792E0,2.9794538E0,1.2204006E0,1.2101173E0,1.6472021E0,1.4362671E0,1.4553424E0,1.245841E0,1.9871738E0],"tree_param":{"num_deleted":"0","num_feature":"12","num_nodes":"41","size_leaf_vector":"1"}},{"base_weights":[1.443522E-3,8.916773E-1,-7.841841E-1,1.0739809E0,7.5044475E-2,-1.7520785E-1,-1.0576049E0,1.3283956E-1,9.764408E-2,-8.511089E-2,1.0658191E0,6.489091E-2,-3.775258E-1,-9.749717E-2,-1.1196856E-1,-1.951035E-1,7.6341055E-2,8.6882494E-2,2.3981882E-2,-5.983471E-1,6.8001866E-1,8.266063E-2,-8.513641E-2,6.1702365E-1,-6.903329E-1,-1.07627444E-1,-7.795977E-2,6.386511E-2,1.47950025E-2,9.734096E-3,6.2897496E-2,-7.2700106E-2,8.369167E-3,2.6395066E-2,-6.9921434E-2],"categories":[],"categories_nodes":[],"categories_segments":[],"categories_sizes":[],"default_left":[0,0,0,0,0,0,0,0,0,0,0,0,0,0,0,0,0,0,0,0,0,0,0,0,0,0,0,0,0,0,0,0,0,0,0],"id":9,"left_children":[1,3,5,7,9,11,13,15,-1,-1,17,-1,19,-1,21,23,-1,-1,-1,25,27,-1,-1,29,31,33,-1,-1,-1,-1,-1,-1,-1,-1,-1],"loss_changes":[7.546389E1,7.449711E0,9.358555E0,8.68158E0,1.3563383E1,4.3174744E0,8.874786E0,2.8575716E0,0E0,0E0,5.6713104E-2,0E0,4.27619E0,0E0,1.2585057E1,3.4518383E0,0E0,0E0,0E0,2.9703112E0,1.07753515E-1,0E0,0E0,2.558956E-1,1.259424E0,3.3053432E0,0E0,0E0,0E0,0E0,0E0,0E0,0E0,0E0,0E0],"parents":[2147483647,0,0,1,1,2,2,3,3,4,4,5,5,6,6,7,7,10,10,12,12,14,14,15,15,19,19,20,20,23,23,24,24,25,25],"right_children":[2,4,6,8,10,12,14,16,-1,-1,18,-1,20,-1,22,24,-1,-1,-1,26,28,-1,-1,30,32,34,-1,-1,-1,-1,-1,-1,-1,-1,-1],"split_conditions":[1E0,5.95E2,1.58E2,1.61E2,6.45E2,4E0,5.99E2,6.5E1,9.764408E-2,-8.511089E-2,7.5E1,6.489091E-2,7.2E1,-9.749717E-2,6.45E2,1.2E1,7.6341055E-2,8.6882494E-2,2.3981882E-2,2E1,5.4E0,8.266063E-2,-8.513641E-2,9.9E1,2E0,4.3E1,-7.795977E-2,6.386511E-2,1.47950025E-2,9.734096E-3,6.2897496E-2,-7.2700106E-2,8.369167E-3,2.6395066E-2,-6.9921434E-2],"split_indices":[2,0,0,0,0,4,0,3,0,0,3,0,3,0,0,3,0,0,0,1,4,0,0,0,5,3,0,0,0,0,0,0,0,0,0],"split_type":[0,0,0,0,0,0,0,0,0,0,0,0,0,0,0,0,0,0,0,0,0,0,0,0,0,0,0,0,0,0,0,0,0,0,0],"sum_hessian":[1.0589945E2,4.958136E1,5.6318096E1,4.0275253E1,9.3061075E0,1.7959227E1,3.8358868E1,8.161216E0,3.2114037E1,4.124371E0,5.1817365E0,2.3903506E0,1.5568875E1,3.023519E1,8.123679E0,6.5235386E0,1.6376772E0,4.1178265E0,1.0639099E0,1.3238758E1,2.3301175E0,3.6799173E0,4.4437613E0,2.3779695E0,4.1455693E0,6.8559017E0,6.382856E0,1.155621E0,1.1744965E0,1.2391679E0,1.1388016E0,2.9206595E0,1.2249099E0,4.7706003E0,2.0853012E0],"tree_param":{"num_deleted":"0","num_feature":"12","num_nodes":"35","size_leaf_vector":"1"}},{"base_weights":[2.638161E-3,8.640429E-1,-7.543001E-1,1.0416521E0,7.4123904E-2,-1.6312316E-1,-1.0286957E0,1.3368379E-1,9.518067E-2,-8.248353E-2,1.0307975E0,-5.9939086E-1,3.2598215E-1,-9.502992E-2,-1.07583635E-1,-1.8144405E-1,7.366684E-2,8.415482E-2,2.3150744E-2,-1.868408E-1,-8.044462E-2,-1.9303769E-1,8.433454E-1,8.014184E-2,-8.2585275E-2,5.962774E-1,-6.58737E-1,3.3722043E-1,-6.152289E-2,2.5458166E-1,-6.3927114E-2,7.7272825E-2,1.206026E-2,9.323495E-3,6.1009247E-2,-6.9675095E-2,8.152461E-3,6.074887E-2,-1.9710587E-2,-5.390417E-2,6.759014E-2],"categories":[],"categories_nodes":[],"categories_segments":[],"categories_sizes":[],"default_left":[0,0,0,0,0,0,0,0,0,0,0,0,0,0,0,0,0,0,0,0,0,0,0,0,0,0,0,0,0,0,0,0,0,0,0,0,0,0,0,0,0],"id":10,"left_children":[1,3,5,7,9,11,13,15,-1,-1,17,19,21,-1,23,25,-1,-1,-1,27,-1,29,31,-1,-1,33,35,37,-1,39,-1,-1,-1,-1,-1,-1,-1,-1,-1,-1,-1],"loss_changes":[6.7769905E1,6.742943E0,8.806795E0,8.009941E0,1.2364505E1,4.1913786E0,8.118866E0,2.5987577E0,0E0,0E0,5.080414E-2,1.8006871E0,2.7074695E0,0E0,1.1485969E1,3.156331E0,0E0,0E0,0E0,2.496572E0,0E0,1.8533111E0,4.6369982E-1,0E0,0E0,2.4289298E-1,1.156419E0,1.4520187E0,0E0,3.2107348E0,0E0,0E0,0E0,0E0,0E0,0E0,0E0,0E0,0E0,0E0,0E0],"parents":[2147483647,0,0,1,1,2,2,3,3,4,4,5,5,6,6,7,7,10,10,11,11,12,12,14,14,15,15,19,19,21,21,22,22,25,25,26,26,27,27,29,29],"right_children":[2,4,6,8,10,12,14,16,-1,-1,18,20,22,-1,24,26,-1,-1,-1,28,-1,30,32,-1,-1,34,36,38,-1,40,-1,-1,-1,-1,-1,-1,-1,-1,-1,-1,-1],"split_conditions":[1E0,5.95E2,1.58E2,1.61E2,6.45E2,5.9E0,5.99E2,6.5E1,9.518067E-2,-8.248353E-2,7.5E1,2E1,2E0,-9.502992E-2,6.45E2,1.2E1,7.366684E-2,8.415482E-2,2.3150744E-2,5.7E0,-8.044462E-2,1.17E2,4.8E0,8.014184E-2,-8.2585275E-2,3E0,2E0,7.8E1,-6.152289E-2,3.2E1,-6.3927114E-2,7.7272825E-2,1.206026E-2,9.323495E-3,6.1009247E-2,-6.9675095E-2,8.152461E-3,6.074887E-2,-1.9710587E-2,-5.390417E-2,6.759014E-2],"split_indices":[2,0,0,0,0,7,0,3,0,0,3,1,9,0,0,3,0,0,0,4,0,0,4,0,0,4,9,0,0,0,0,0,0,0,0,0,0,0,0,0,0],"split_type":[0,0,0,0,0,0,0,0,0,0,0,0,0,0,0,0,0,0,0,0,0,0,0,0,0,0,0,0,0,0,0,0,0,0,0,0,0,0,0,0,0],"sum_hessian":[1.0193719E2,4.7612312E1,5.432487E1,3.8611935E1,9.000377E0,1.7727022E1,3.659785E1,8.052166E0,3.0559769E1,3.9741876E0,5.0261893E0,9.250426E0,8.476595E0,2.8775585E1,7.8222656E0,6.4448657E0,1.6073004E0,3.9705215E0,1.0556679E0,5.6871133E0,3.563313E0,4.5444627E0,3.9321325E0,3.5474267E0,4.274839E0,2.3562315E0,4.088634E0,3.368243E0,2.31887E0,3.0724385E0,1.4720244E0,2.6866941E0,1.2454383E0,1.2380834E0,1.1181481E0,2.8680737E0,1.2205604E0,1.688196E0,1.680047E0,1.1819063E0,1.890532E0],"tree_param":{"num_deleted":"0","num_feature":"12","num_nodes":"41","size_leaf_vector":"1"}},{"base_weights":[2.9705719E-3,8.387399E-1,-7.291761E-1,1.0121056E0,7.330983E-2,-1.5705399E-1,-1.002589E0,1.344517E-1,9.297643E-2,-9.6944165E-1,8.198854E-2,-5.7493013E-1,3.1054842E-1,-9.28209E-2,-1.03516065E-1,-1.68685E-1,7.1188085E-2,-2.0512227E-2,-8.023406E-2,-7.444343E-1,2.1504652E-2,-1.8950626E-1,8.13549E-1,7.7810764E-2,-8.023169E-2,4.994408E-1,-6.9623536E-1,-3.8534454E-1,-8.1563875E-2,2.3977485E-1,-6.206706E-2,7.4905515E-2,1.1563264E-2,-2.097378E-2,7.357628E-2,-7.6681666E-2,7.820114E-3,-4.8084393E-2,2.690188E-2,-5.167221E-2,6.462632E-2],"categories":[],"categories_nodes":[],"categories_segments":[],"categories_sizes":[],"default_left":[0,0,0,0,0,0,0,0,0,0,0,0,0,0,0,0,0,0,0,0,0,0,0,0,0,0,0,0,0,0,0,0,0,0,0,0,0,0,0,0,0],"id":11,"left_children":[1,3,5,7,9,11,13,15,-1,17,-1,19,21,-1,23,25,-1,-1,-1,27,-1,29,31,-1,-1,33,35,37,-1,39,-1,-1,-1,-1,-1,-1,-1,-1,-1,-1,-1],"loss_changes":[6.1135E1,6.1164207E0,8.173489E0,7.4149895E0,1.1368146E1,3.7753427E0,7.4472694E0,2.3674762E0,0E0,7.913494E-2,0E0,1.6844049E0,2.5024657E0,0E0,1.0503775E1,2.9430034E0,0E0,0E0,0E0,6.51988E-1,0E0,1.702943E0,4.374292E-1,0E0,0E0,1.711705E0,1.29E0,1.3331175E0,0E0,2.9380958E0,0E0,0E0,0E0,0E0,0E0,0E0,0E0,0E0,0E0,0E0,0E0],"parents":[2147483647,0,0,1,1,2,2,3,3,4,4,5,5,6,6,7,7,9,9,11,11,12,12,14,14,15,15,19,19,21,21,22,22,25,25,26,26,27,27,29,29],"right_children":[2,4,6,8,10,12,14,16,-1,18,-1,20,22,-1,24,26,-1,-1,-1,28,-1,30,32,-1,-1,34,36,38,-1,40,-1,-1,-1,-1,-1,-1,-1,-1,-1,-1,-1],"split_conditions":[1E0,5.95E2,1.58E2,1.61E2,6.47E2,5.9E0,5.99E2,6.5E1,9.297643E-2,6.3E0,8.198854E-2,7.2E1,2E0,-9.28209E-2,6.45E2,2.2E1,7.1188085E-2,-2.0512227E-2,-8.023406E-2,4.3E1,2.1504652E-2,1.17E2,4.8E0,7.7810764E-2,-8.023169E-2,2.9E0,2E0,3.5E1,-8.1563875E-2,3.2E1,-6.206706E-2,7.4905515E-2,1.1563264E-2,-2.097378E-2,7.357628E-2,-7.6681666E-2,7.820114E-3,-4.8084393E-2,2.690188E-2,-5.167221E-2,6.462632E-2],"split_indices":[2,0,0,0,0,7,0,3,0,7,0,3,9,0,0,3,0,0,0,3,0,0,4,0,0,4,9,3,0,0,0,0,0,0,0,0,0,0,0,0,0],"split_type":[0,0,0,0,0,0,0,0,0,0,0,0,0,0,0,0,0,0,0,0,0,0,0,0,0,0,0,0,0,0,0,0,0,0,0,0,0,0,0,0,0],"sum_hessian":[9.7909706E1,4.565147E1,5.2258232E1,3.695834E1,8.693132E0,1.7407373E1,3.485086E1,7.937699E0,2.902064E1,4.3227983E0,4.3703337E0,9.071255E0,8.336118E0,2.7330078E1,7.520782E0,6.363109E0,1.5745898E0,1.0142229E0,3.3085754E0,7.6937904E0,1.3774648E0,4.4928393E0,3.8432786E0,3.4147353E0,4.1060467E0,2.831009E0,3.5321002E0,4.7965975E0,2.8971925E0,3.0589778E0,1.4338615E0,2.598719E0,1.2445596E0,1.2416222E0,1.5893869E0,2.3125606E0,1.2195395E0,3.672426E0,1.1241719E0,1.1836051E0,1.8753728E0],"tree_param":{"num_deleted":"0","num_feature":"12","num_nodes":"41","size_leaf_vector":"1"}},{"base_weights":[2.785606E-3,8.142291E-1,-7.04968E-1,9.846556E-1,6.8268664E-2,-1.5012847E-1,-9.7885543E-1,1.32497E-1,9.099205E-2,-7.815182E-2,9.721451E-1,-3.092244E-1,7.243868E-2,-9.083086E-2,-9.972113E-2,-1.6063185E-1,6.8881005E-2,7.968851E-2,2.1048956E-2,5.8082055E-2,-4.3247542E-1,7.564097E-2,-7.804699E-2,4.7994745E-1,-6.700557E-1,2.1239888E-2,-9.149969E-1,-2.0091452E-2,7.111583E-2,-7.426017E-2,7.5014182E-3,3.485596E-2,-7.631175E-2,-2.0236991E-2,-7.5368546E-2],"categories":[],"categories_nodes":[],"categories_segments":[],"categories_sizes":[],"default_left":[0,0,0,0,0,0,0,0,0,0,0,0,0,0,0,0,0,0,0,0,0,0,0,0,0,0,0,0,0,0,0,0,0,0,0],"id":12,"left_children":[1,3,5,7,9,11,13,15,-1,-1,17,19,-1,-1,21,23,-1,-1,-1,-1,25,-1,-1,27,29,31,33,-1,-1,-1,-1,-1,-1,-1,-1],"loss_changes":[5.5104496E1,5.615448E0,7.641445E0,6.9120064E0,1.0433982E1,3.5157244E0,6.8475113E0,2.1753812E0,0E0,0E0,5.749798E-2,2.554186E0,0E0,0E0,9.623025E0,2.6914804E0,0E0,0E0,0E0,0E0,3.4261398E0,0E0,0E0,1.5846006E0,1.1990058E0,4.617709E0,1.6763353E-1,0E0,0E0,0E0,0E0,0E0,0E0,0E0,0E0],"parents":[2147483647,0,0,1,1,2,2,3,3,4,4,5,5,6,6,7,7,10,10,11,11,14,14,15,15,20,20,23,23,24,24,25,25,26,26],"right_children":[2,4,6,8,10,12,14,16,-1,-1,18,20,-1,-1,22,24,-1,-1,-1,-1,26,-1,-1,28,30,32,34,-1,-1,-1,-1,-1,-1,-1,-1],"split_conditions":[1E0,5.95E2,1.58E2,1.61E2,6.45E2,7E0,5.99E2,6.5E1,9.099205E-2,-7.815182E-2,7.5E1,1E0,7.243868E-2,-9.083086E-2,6.45E2,2.2E1,6.8881005E-2,7.968851E-2,2.1048956E-2,5.8082055E-2,2E1,7.564097E-2,-7.804699E-2,2.9E0,2E0,5.7E0,4.3E0,-2.0091452E-2,7.111583E-2,-7.426017E-2,7.5014182E-3,3.485596E-2,-7.631175E-2,-2.0236991E-2,-7.5368546E-2],"split_indices":[2,0,0,0,0,5,0,3,0,0,3,5,0,0,0,3,0,0,0,0,1,0,0,4,9,4,4,0,0,0,0,0,0,0,0],"split_type":[0,0,0,0,0,0,0,0,0,0,0,0,0,0,0,0,0,0,0,0,0,0,0,0,0,0,0,0,0,0,0,0,0,0,0],"sum_hessian":[9.395089E1,4.369914E1,5.025175E1,3.5311646E1,8.387493E0,1.711944E1,3.3132313E1,7.8024187E0,2.7509228E1,3.6953743E0,4.6921186E0,1.5616091E1,1.5033486E0,2.5910494E1,7.221819E0,6.2623262E0,1.5400923E0,3.6752622E0,1.0168566E0,1.0551995E0,1.4560891E1,3.282987E0,3.9388318E0,2.7996922E0,3.462634E0,7.997148E0,6.563743E0,1.2428049E0,1.5568873E0,2.2441094E0,1.2185248E0,5.9915285E0,2.0056195E0,1.2922764E0,5.2714667E0],"tree_param":{"num_deleted":"0","num_feature":"12","num_nodes":"35","size_leaf_vector":"1"}},{"base_weights":[3.3931732E-3,7.923428E-1,-6.8149185E-1,9.5924E-1,6.774248E-2,-1.4173292E-1,-9.5714116E-1,1.3065165E-1,8.91952E-2,-6.869562E-2,7.791303E-2,-2.9562765E-1,7.01262E-2,-8.902756E-2,-9.616067E-2,-2.5691754E-1,6.7769516E-1,5.6465995E-2,-4.1540635E-1,7.361062E-2,-7.600741E-2,1.9321755E-1,-6.327617E-2,7.28012E-2,4.5490866E-3,1.5009684E-2,-8.7729734E-1,-6.8580885E-3,3.675548E-2,3.2748133E-2,-7.377465E-2,-1.9409899E-2,-7.239244E-2],"categories":[],"categories_nodes":[],"categories_segments":[],"categories_sizes":[],"default_left":[0,0,0,0,0,0,0,0,0,0,0,0,0,0,0,0,0,0,0,0,0,0,0,0,0,0,0,0,0,0,0,0,0],"id":13,"left_children":[1,3,5,7,9,11,13,15,-1,-1,-1,17,-1,-1,19,21,23,-1,25,-1,-1,27,-1,-1,-1,29,31,-1,-1,-1,-1,-1,-1],"loss_changes":[4.975062E1,5.1090393E0,7.1978607E0,6.458109E0,9.630532E0,3.231984E0,6.3094654E0,2.0108366E0,0E0,0E0,0E0,2.3680801E0,0E0,0E0,8.830817E0,1.6938078E0,6.4028156E-1,0E0,3.0612676E0,0E0,0E0,3.907137E-1,0E0,0E0,0E0,4.185315E0,1.5334606E-1,0E0,0E0,0E0,0E0,0E0,0E0],"parents":[2147483647,0,0,1,1,2,2,3,3,4,4,5,5,6,6,7,7,11,11,14,14,15,15,16,16,18,18,21,21,25,25,26,26],"right_children":[2,4,6,8,10,12,14,16,-1,-1,-1,18,-1,-1,20,22,24,-1,26,-1,-1,28,-1,-1,-1,30,32,-1,-1,-1,-1,-1,-1],"split_conditions":[1E0,5.95E2,1.58E2,1.61E2,6.47E2,7E0,5.99E2,2E0,8.91952E-2,-6.869562E-2,7.791303E-2,1E0,7.01262E-2,-8.902756E-2,6.45E2,1.19E2,5E1,5.6465995E-2,2E1,7.361062E-2,-7.600741E-2,3E0,-6.327617E-2,7.28012E-2,4.5490866E-3,5.7E0,4.3E0,-6.8580885E-3,3.675548E-2,3.2748133E-2,-7.377465E-2,-1.9409899E-2,-7.239244E-2],"split_indices":[2,0,0,0,0,5,0,9,0,0,0,5,0,0,0,0,3,0,1,0,0,4,0,0,0,4,4,0,0,0,0,0,0],"split_type":[0,0,0,0,0,0,0,0,0,0,0,0,0,0,0,0,0,0,0,0,0,0,0,0,0,0,0,0,0,0,0,0,0],"sum_hessian":[9.007353E1,4.1783897E1,4.8289635E1,3.3698338E1,8.085562E0,1.6836216E1,3.145342E1,7.6630926E0,2.6035244E1,4.0449667E0,4.0405946E0,1.5365535E1,1.4706805E0,2.452597E1,6.92745E0,4.7957525E0,2.86734E0,1.0334474E0,1.43320875E1,3.1531038E0,3.7743464E0,3.0933805E0,1.7023722E0,1.5555822E0,1.311758E0,7.9196324E0,6.412455E0,1.932371E0,1.1610093E0,5.9643173E0,1.9553149E0,1.2890295E0,5.123426E0],"tree_param":{"num_deleted":"0","num_feature":"12","num_nodes":"33","size_leaf_vector":"1"}},{"base_weights":[3.7781317E-3,7.706932E-1,-6.5933883E-1,9.339739E-1,6.612383E-2,-1.2002861E-1,-9.2970276E-1,1.2727E-1,8.755904E-2,-7.424281E-2,6.9192275E-2,-5.1631904E-1,3.4458795E-1,-8.6272694E-2,-9.280463E-2,-1.5970342E-1,6.6557854E-2,-1.5142992E-1,-7.261263E-2,-7.787871E-2,7.3338014E-1,7.170134E-2,-7.409312E-2,5.245632E-1,-5.875472E-1,-6.577005E-1,3.8049474E-1,-4.2859414E-1,3.6468834E-2,6.9274224E-2,9.728939E-3,8.055918E-3,5.4352056E-2,-6.269811E-2,6.363003E-3,-1.2244158E-4,-7.204009E-2,4.8629016E-2,-3.2909748E-3,8.648392E-3,-6.1605472E-2],"categories":[],"categories_nodes":[],"categories_segments":[],"categories_sizes":[],"default_left":[0,0,0,0,0,0,0,0,0,0,0,0,0,0,0,0,0,0,0,0,0,0,0,0,0,0,0,0,0,0,0,0,0,0,0,0,0,0,0,0,0],"id":14,"left_children":[1,3,5,7,9,11,13,15,-1,-1,-1,17,19,-1,21,23,-1,25,-1,27,29,-1,-1,31,33,35,37,39,-1,-1,-1,-1,-1,-1,-1,-1,-1,-1,-1,-1,-1],"loss_changes":[4.4920315E1,4.6500187E0,6.7959366E0,6.099861E0,8.855869E0,3.301942E0,5.6914825E0,2.010989E0,0E0,0E0,0E0,1.4291134E0,1.4384661E0,0E0,8.116275E0,2.3774147E0,0E0,1.9933441E0,0E0,1.1846787E0,3.9425278E-1,0E0,0E0,1.9327205E-1,8.7613845E-1,7.3013616E-1,4.5931143E-1,8.583738E-1,0E0,0E0,0E0,0E0,0E0,0E0,0E0,0E0,0E0,0E0,0E0,0E0,0E0],"parents":[2147483647,0,0,1,1,2,2,3,3,4,4,5,5,6,6,7,7,11,11,12,12,14,14,15,15,17,17,19,19,20,20,23,23,24,24,25,25,26,26,27,27],"right_children":[2,4,6,8,10,12,14,16,-1,-1,-1,18,20,-1,22,24,-1,26,-1,28,30,-1,-1,32,34,36,38,40,-1,-1,-1,-1,-1,-1,-1,-1,-1,-1,-1,-1,-1],"split_conditions":[1E0,5.95E2,1.52E2,1.61E2,6.45E2,5.9E0,5.99E2,6.5E1,8.755904E-2,-7.424281E-2,6.9192275E-2,2E1,2E0,-8.6272694E-2,6.45E2,1.2E1,6.6557854E-2,2E0,-7.261263E-2,5.7E1,4.8E0,7.170134E-2,-7.409312E-2,9.9E1,2E0,2.5E1,5.4E0,6.1E0,3.6468834E-2,6.9274224E-2,9.728939E-3,8.055918E-3,5.4352056E-2,-6.269811E-2,6.363003E-3,-1.2244158E-4,-7.204009E-2,4.8629016E-2,-3.2909748E-3,8.648392E-3,-6.1605472E-2],"split_indices":[2,0,0,0,0,7,0,3,0,0,0,1,9,0,0,3,0,5,0,3,4,0,0,0,5,3,7,7,0,0,0,0,0,0,0,0,0,0,0,0,0],"split_type":[0,0,0,0,0,0,0,0,0,0,0,0,0,0,0,0,0,0,0,0,0,0,0,0,0,0,0,0,0,0,0,0,0,0,0,0,0,0,0,0,0],"sum_hessian":[8.633023E1,3.995677E1,4.637346E1,3.217481E1,7.781962E0,1.5967046E1,3.0406412E1,7.5687795E0,2.4606031E1,3.4151256E0,4.366836E0,8.557081E0,7.409964E0,2.3767107E1,6.6393056E0,6.0679564E0,1.5008229E0,5.472732E0,3.0843494E0,3.9344406E0,3.4755237E0,3.0258105E0,3.613495E0,2.247455E0,3.8205016E0,2.682834E0,2.789898E0,2.5742834E0,1.3601573E0,2.2395256E0,1.235998E0,1.226876E0,1.0205789E0,2.6121094E0,1.2083923E0,1.1647906E0,1.5180434E0,1.3866754E0,1.4032227E0,1.3757713E0,1.1985121E0],"tree_param":{"num_deleted":"0","num_feature":"12","num_nodes":"41","size_leaf_vector":"1"}},{"base_weights":[4.00194E-3,7.5107384E-1,-6.3885224E-1,9.11798E-1,6.26942E-2,-1.2675975E-1,-9.189631E-1,1.2800145E-1,8.6061046E-2,-6.499043E-2,7.419852E-2,-4.7507784E-1,3.197428E-1,-8.5896775E-2,-8.9627065E-2,-1.4880359E-1,6.45473E-2,-4.0994298E-2,-6.9023274E-2,-2.4341382E-1,6.957779E-2,6.9897786E-2,-7.228748E-2,3.81262E-2,-5.625571E-1,5.2734375E-1,-4.949375E-1,4.7765907E-2,-6.818581E-2,-6.0435385E-2,6.2723076E-3,5.1048163E-2,9.901721E-3,-1.13155935E-2,-4.7941968E-2],"categories":[],"categories_nodes":[],"categories_segments":[],"categories_sizes":[],"default_left":[0,0,0,0,0,0,0,0,0,0,0,0,0,0,0,0,0,0,0,0,0,0,0,0,0,0,0,0,0,0,0,0,0,0,0],"id":15,"left_children":[1,3,5,7,9,11,13,15,-1,-1,-1,17,19,-1,21,23,-1,25,-1,27,-1,-1,-1,-1,29,31,33,-1,-1,-1,-1,-1,-1,-1,-1],"loss_changes":[4.0667194E1,4.275669E0,6.412571E0,5.7043858E0,8.164672E0,2.835338E0,5.390011E0,1.841322E0,0E0,0E0,0E0,1.9133167E0,3.019288E0,0E0,7.470172E0,2.1849582E0,0E0,1.8497566E0,0E0,3.525464E0,0E0,0E0,0E0,0E0,8.1565607E-1,1.0519689E-1,9.912908E-2,0E0,0E0,0E0,0E0,0E0,0E0,0E0,0E0],"parents":[2147483647,0,0,1,1,2,2,3,3,4,4,5,5,6,6,7,7,11,11,12,12,14,14,15,15,17,17,19,19,24,24,25,25,26,26],"right_children":[2,4,6,8,10,12,14,16,-1,-1,-1,18,20,-1,22,24,-1,26,-1,28,-1,-1,-1,-1,30,32,34,-1,-1,-1,-1,-1,-1,-1,-1],"split_conditions":[1E0,5.95E2,1.58E2,1.61E2,6.47E2,6E0,5.99E2,6.5E1,8.6061046E-2,-6.499043E-2,7.419852E-2,8E0,6E0,-8.5896775E-2,6.45E2,1.2E1,6.45473E-2,6.3E1,-6.9023274E-2,5.5E0,6.957779E-2,6.9897786E-2,-7.228748E-2,3.81262E-2,2E0,2.5E1,4.7E0,4.7765907E-2,-6.818581E-2,-6.0435385E-2,6.2723076E-3,5.1048163E-2,9.901721E-3,-1.13155935E-2,-4.7941968E-2],"split_indices":[2,0,0,0,0,5,0,3,0,0,0,11,7,0,0,3,0,0,0,7,0,0,0,0,9,3,4,0,0,0,0,0,0,0,0],"split_type":[0,0,0,0,0,0,0,0,0,0,0,0,0,0,0,0,0,0,0,0,0,0,0,0,0,0,0,0,0,0,0,0,0,0,0],"sum_hessian":[8.267865E1,3.816181E1,4.4516838E1,3.067516E1,7.4866524E0,1.6254059E1,2.826278E1,7.448201E0,2.322696E1,3.7704272E0,3.716225E0,9.095013E0,7.159046E0,2.1904133E1,6.358646E0,5.9841394E0,1.4640619E0,5.158125E0,3.9368873E0,4.027749E0,3.1312969E0,2.9016733E0,3.4569728E0,2.223689E0,3.7604504E0,2.2186606E0,2.939464E0,1.7530444E0,2.274705E0,2.552562E0,1.2078884E0,1.0786378E0,1.1400229E0,1.4729033E0,1.466561E0],"tree_param":{"num_deleted":"0","num_feature":"12","num_nodes":"35","size_leaf_vector":"1"}},{"base_weights":[4.3549836E-3,7.323112E-1,-6.1825E-1,8.9003587E-1,6.1397392E-2,-1.20007135E-1,-9.017106E-1,1.2589346E-1,8.468216E-2,-7.0771076E-2,6.5586805E-2,-2.6289237E-1,6.499801E-2,-8.450784E-2,-8.6606644E-2,-1.417862E-1,6.265546E-2,-6.1110243E-2,-6.4772345E-2,6.818696E-2,-7.0576504E-2,4.16798E-1,-5.9826434E-1,4.104341E-1,-5.1506495E-1,-2.0767719E-2,6.591481E-2,-6.7332156E-2,6.017597E-3,-1.6461069E-2,5.9852093E-2,-6.571152E-2,2.3274594E-3],"categories":[],"categories_nodes":[],"categories_segments":[],"categories_sizes":[],"default_left":[0,0,0,0,0,0,0,0,0,0,0,0,0,0,0,0,0,0,0,0,0,0,0,0,0,0,0,0,0,0,0,0,0],"id":16,"left_children":[1,3,5,7,9,11,13,15,-1,-1,-1,17,-1,-1,19,21,-1,23,-1,-1,-1,25,27,29,31,-1,-1,-1,-1,-1,-1,-1,-1],"loss_changes":[3.6801815E1,3.906166E0,6.073572E0,5.380371E0,7.524788E0,2.62804E0,4.9921455E0,1.7004054E0,0E0,0E0,0E0,1.8429602E0,0E0,0E0,6.884634E0,2.0094233E0,0E0,2.9477196E0,0E0,0E0,0E0,1.4272823E0,9.273689E-1,1.8418587E0,1.3989258E0,0E0,0E0,0E0,0E0,0E0,0E0,0E0,0E0],"parents":[2147483647,0,0,1,1,2,2,3,3,4,4,5,5,6,6,7,7,11,11,14,14,15,15,17,17,21,21,22,22,23,23,24,24],"right_children":[2,4,6,8,10,12,14,16,-1,-1,-1,18,-1,-1,20,22,-1,24,-1,-1,-1,26,28,30,32,-1,-1,-1,-1,-1,-1,-1,-1],"split_conditions":[1E0,5.95E2,1.58E2,1.61E2,6.45E2,7E0,5.99E2,6.5E1,8.468216E-2,-7.0771076E-2,6.5586805E-2,5.7E0,6.499801E-2,-8.450784E-2,6.45E2,2.2E1,6.265546E-2,2E1,-6.4772345E-2,6.818696E-2,-7.0576504E-2,2.9E0,2E0,2E0,6E0,-2.0767719E-2,6.591481E-2,-6.7332156E-2,6.017597E-3,-1.6461069E-2,5.9852093E-2,-6.571152E-2,2.3274594E-3],"split_indices":[2,0,0,0,0,5,0,3,0,0,0,4,0,0,0,3,0,1,0,0,0,4,9,5,7,0,0,0,0,0,0,0,0],"split_type":[0,0,0,0,0,0,0,0,0,0,0,0,0,0,0,0,0,0,0,0,0,0,0,0,0,0,0,0,0,0,0,0,0],"sum_hessian":[7.920019E1,3.6429836E1,4.2770348E1,2.9231274E1,7.1985626E0,1.6025484E1,2.6744864E1,7.3295007E0,2.1901773E1,3.1475532E0,4.051009E0,1.4639025E1,1.3864589E0,2.0658443E1,6.086419E0,5.9027276E0,1.4267733E0,1.1782969E1,2.8560555E0,2.7811203E0,3.3052988E0,2.6935747E0,3.209153E0,5.8265376E0,5.956432E0,1.2370769E0,1.4564979E0,2.0021987E0,1.206954E0,2.3846898E0,3.441848E0,3.2217617E0,2.7346702E0],"tree_param":{"num_deleted":"0","num_feature":"12","num_nodes":"33","size_leaf_vector":"1"}},{"base_weights":[4.4529475E-3,7.144025E-1,-5.991186E-1,8.699704E-1,5.811911E-2,-1.1409582E-1,-8.855544E-1,1.2413906E-1,8.340614E-2,-8.2193995E-1,7.0881836E-2,-2.5255048E-1,6.312273E-2,-8.322128E-2,-8.372569E-2,-1.3567583E-1,6.086998E-2,-6.916583E-2,-1.8104345E-2,-3.8454425E-1,3.6971852E-2,6.655792E-2,-6.894836E-2,4.0186647E-1,-5.7787275E-1,9.696514E-2,-6.8318576E-1,-1.9896265E-2,6.395348E-2,-6.549035E-2,5.7732635E-3,6.3776106E-2,-2.217384E-2,3.5981545E-3,-6.736927E-2],"categories":[],"categories_nodes":[],"categories_segments":[],"categories_sizes":[],"default_left":[0,0,0,0,0,0,0,0,0,0,0,0,0,0,0,0,0,0,0,0,0,0,0,0,0,0,0,0,0,0,0,0,0,0,0],"id":17,"left_children":[1,3,5,7,9,11,13,15,-1,17,-1,19,-1,-1,21,23,-1,-1,-1,25,-1,-1,-1,27,29,31,33,-1,-1,-1,-1,-1,-1,-1,-1],"loss_changes":[3.33337E1,3.5986195E0,5.7407866E0,5.066433E0,6.95953E0,2.4303913E0,4.6301537E0,1.5727575E0,0E0,3.99611E-2,0E0,1.7058307E0,0E0,0E0,6.35289E0,1.8485053E0,0E0,0E0,0E0,2.029501E0,0E0,0E0,0E0,1.3267112E0,8.680525E-1,2.056319E0,1.3877223E0,0E0,0E0,0E0,0E0,0E0,0E0,0E0,0E0],"parents":[2147483647,0,0,1,1,2,2,3,3,4,4,5,5,6,6,7,7,9,9,11,11,14,14,15,15,19,19,23,23,24,24,25,25,26,26],"right_children":[2,4,6,8,10,12,14,16,-1,18,-1,20,-1,-1,22,24,-1,-1,-1,26,-1,-1,-1,28,30,32,34,-1,-1,-1,-1,-1,-1,-1,-1],"split_conditions":[1E0,5.95E2,1.58E2,1.61E2,6.47E2,7E0,5.99E2,6.5E1,8.340614E-2,6.3E0,7.0881836E-2,7.2E1,6.312273E-2,-8.322128E-2,6.45E2,2.2E1,6.086998E-2,-6.916583E-2,-1.8104345E-2,4.8E0,3.6971852E-2,6.655792E-2,-6.894836E-2,2.9E0,2E0,2E1,1.5E1,-1.9896265E-2,6.395348E-2,-6.549035E-2,5.7732635E-3,6.3776106E-2,-2.217384E-2,3.5981545E-3,-6.736927E-2],"split_indices":[2,0,0,0,0,5,0,3,0,4,0,3,0,0,0,3,0,0,0,4,0,0,0,4,9,1,3,0,0,0,0,0,0,0,0],"split_type":[0,0,0,0,0,0,0,0,0,0,0,0,0,0,0,0,0,0,0,0,0,0,0,0,0,0,0,0,0,0,0,0,0,0,0],"sum_hessian":[7.579178E1,3.474244E1,4.1049335E1,2.7821844E1,6.9205976E0,1.5760446E1,2.528889E1,7.188917E0,2.0632927E1,3.5106392E0,3.4099584E0,1.4408825E1,1.3516207E0,1.946558E1,5.823311E0,5.7996664E0,1.3892505E0,2.4917529E0,1.0188864E0,1.2652805E1,1.7560194E0,2.6644645E0,3.1588464E0,2.6587944E0,3.1408722E0,5.1019993E0,7.5508065E0,1.2381715E0,1.420623E0,1.9348346E0,1.2060376E0,1.3485147E0,3.7534847E0,1.8928293E0,5.657977E0],"tree_param":{"num_deleted":"0","num_feature":"12","num_nodes":"35","size_leaf_vector":"1"}},{"base_weights":[5.7451595E-3,-6.487999E-1,6.235237E-1,-1.506453E-1,-9.4289297E-1,8.041183E-1,2.95767E-2,-5.1399124E-1,3.1196937E-1,-8.19691E-2,-9.291372E-2,1.5039852E-1,8.124295E-2,-4.3163243E-1,5.333733E-1,-8.383215E-2,-8.4564424E-1,-3.4197547E-2,6.935278E-1,5.512515E-2,-5.900171E-2,6.628365E-2,-9.532915E-2,3.0072583E-2,-5.6232225E-2,-4.060708E-3,6.42399E-2,5.4444652E-2,-5.2912575E-1,-7.442652E-2,-2.240951E-2,9.427634E-3,7.513097E-2,5.7615995E-1,-4.4732928E-1,-5.477591E-2,-8.091925E-3,5.6484703E-2,6.7433873E-3,-6.571273E-2,-1.7854319E-3],"categories":[],"categories_nodes":[],"categories_segments":[],"categories_sizes":[],"default_left":[0,0,0,0,0,0,0,0,0,0,0,0,0,0,0,0,0,0,0,0,0,0,0,0,0,0,0,0,0,0,0,0,0,0,0,0,0,0,0,0,0],"id":18,"left_children":[1,3,5,7,9,11,13,15,17,-1,19,21,-1,23,25,27,29,-1,31,-1,-1,-1,33,-1,-1,-1,-1,-1,35,-1,-1,-1,-1,37,39,-1,-1,-1,-1,-1,-1],"loss_changes":[3.014932E1,5.1624146E0,4.090043E0,2.6196055E0,2.7774048E0,5.1964836E0,2.549263E0,1.1520529E0,2.3844352E0,0E0,3.1514597E0,1.8773252E0,0E0,1.82717E0,1.0369439E0,2.1300218E0,8.2993746E-2,0E0,7.687788E-1,0E0,0E0,0E0,2.2326312E0,0E0,0E0,0E0,0E0,0E0,2.3502064E-1,0E0,0E0,0E0,0E0,2.1716857E-1,1.0770009E0,0E0,0E0,0E0,0E0,0E0,0E0],"parents":[2147483647,0,0,1,1,2,2,3,3,4,4,5,5,6,6,7,7,8,8,10,10,11,11,13,13,14,14,15,15,16,16,18,18,22,22,28,28,33,33,34,34],"right_children":[2,4,6,8,10,12,14,16,18,-1,20,22,-1,24,26,28,30,-1,32,-1,-1,-1,34,-1,-1,-1,-1,-1,36,-1,-1,-1,-1,38,40,-1,-1,-1,-1,-1,-1],"split_conditions":[2.1E1,1.58E2,5.93E2,6E0,5.99E2,1.61E2,6.5E2,8E0,5.6E1,-8.19691E-2,6.43E2,4.4E1,8.124295E-2,2.2E1,2.3E1,2.7E1,2E0,-3.4197547E-2,5.8E0,5.512515E-2,-5.900171E-2,6.628365E-2,1E0,3.0072583E-2,-5.6232225E-2,-4.060708E-3,6.42399E-2,5.4444652E-2,2E0,-7.442652E-2,-2.240951E-2,9.427634E-3,7.513097E-2,6.8E0,2E0,-5.477591E-2,-8.091925E-3,5.6484703E-2,6.7433873E-3,-6.571273E-2,-1.7854319E-3],"split_indices":[1,0,0,5,0,0,0,11,0,0,0,0,0,1,1,3,9,0,7,0,0,0,5,0,0,0,0,0,9,0,0,0,0,7,5,0,0,0,0,0,0],"split_type":[0,0,0,0,0,0,0,0,0,0,0,0,0,0,0,0,0,0,0,0,0,0,0,0,0,0,0,0,0,0,0,0,0,0,0,0,0,0,0,0,0],"sum_hessian":[7.255944E1,3.520696E1,3.735248E1,1.3630663E1,2.1576296E1,2.8371908E1,8.980573E0,7.572235E0,6.0584283E0,1.8096323E1,3.4799716E0,8.949776E0,1.9422132E1,4.763232E0,4.217341E0,3.841944E0,3.7302911E0,1.946277E0,4.112151E0,1.5595104E0,1.9204612E0,1.5944597E0,7.355316E0,1.2448547E0,3.5183778E0,1.7919524E0,2.4253883E0,1.1395186E0,2.7024252E0,2.2988777E0,1.4314134E0,1.942094E0,2.1700573E0,2.3106375E0,5.0446787E0,1.3322126E0,1.3702127E0,1.2916754E0,1.018962E0,1.9755576E0,3.0691214E0],"tree_param":{"num_deleted":"0","num_feature":"12","num_nodes":"41","size_leaf_vector":"1"}},{"base_weights":[6.053887E-3,6.8204E-1,-5.6106967E-1,8.3271253E-1,6.043377E-2,-8.608993E-2,-8.4711444E-1,1.2257369E-1,8.113389E-2,-6.648699E-2,6.1552737E-2,6.0208034E-2,-2.4126834E-1,-7.971634E-2,-8.336761E-2,6.25044E-2,-1.1591786E-1,-4.2509875E-1,4.207838E-2,6.395911E-2,-6.6572994E-2,5.625198E-1,-5.801257E-1,-6.068246E-2,-8.592705E-1,6.41699E-3,5.599234E-2,-6.1087884E-2,-1.2898008E-2,2.643131E-2,-5.4451156E-2,-2.0508343E-2,-7.770135E-2],"categories":[],"categories_nodes":[],"categories_segments":[],"categories_sizes":[],"default_left":[0,0,0,0,0,0,0,0,0,0,0,0,0,0,0,0,0,0,0,0,0,0,0,0,0,0,0,0,0,0,0,0,0],"id":19,"left_children":[1,3,5,7,9,11,13,15,-1,-1,-1,-1,17,-1,19,-1,21,23,-1,-1,-1,25,27,29,31,-1,-1,-1,-1,-1,-1,-1,-1],"loss_changes":[2.7473259E1,3.0113487E0,5.222456E0,4.5074863E0,6.0952883E0,2.367866E0,3.9014626E0,1.4425747E0,0E0,0E0,0E0,0E0,2.3311887E0,0E0,5.5897617E0,0E0,2.4751174E0,1.8643179E0,0E0,0E0,0E0,2.240107E-1,2.9455543E-1,2.361573E0,2.8115654E-1,0E0,0E0,0E0,0E0,0E0,0E0,0E0,0E0],"parents":[2147483647,0,0,1,1,2,2,3,3,4,4,5,5,6,6,7,7,12,12,14,14,16,16,17,17,21,21,22,22,23,23,24,24],"right_children":[2,4,6,8,10,12,14,16,-1,-1,-1,-1,18,-1,20,-1,22,24,-1,-1,-1,26,28,30,32,-1,-1,-1,-1,-1,-1,-1,-1],"split_conditions":[1E0,5.95E2,1.52E2,1.61E2,6.45E2,4E0,5.99E2,2.5E0,8.113389E-2,-6.648699E-2,6.1552737E-2,6.0208034E-2,7.2E1,-7.971634E-2,6.45E2,6.25044E-2,1E0,4.3E1,4.207838E-2,6.395911E-2,-6.6572994E-2,1.19E2,2E0,2E1,4.7E0,6.41699E-3,5.599234E-2,-6.1087884E-2,-1.2898008E-2,2.643131E-2,-5.4451156E-2,-2.0508343E-2,-7.770135E-2],"split_indices":[2,0,0,0,0,4,0,4,0,0,0,0,3,0,0,0,5,3,0,0,0,0,5,1,4,0,0,0,0,0,0,0,0],"split_type":[0,0,0,0,0,0,0,0,0,0,0,0,0,0,0,0,0,0,0,0,0,0,0,0,0,0,0,0,0,0,0,0,0],"sum_hessian":[6.966477E1,3.1689575E1,3.79752E1,2.5233545E1,6.4560294E0,1.4762657E1,2.3212543E1,6.9396906E0,1.8293856E1,2.801141E0,3.6548884E0,1.5739311E0,1.3188725E1,1.7793844E1,5.4186993E0,1.1167661E0,5.8229246E0,1.1112686E1,2.07604E0,2.476169E0,2.9425302E0,2.2795653E0,3.5433593E0,6.6613426E0,4.451343E0,1.0425743E0,1.2369912E0,1.6184062E0,1.9249531E0,4.3998346E0,2.2615082E0,1.622081E0,2.8292618E0],"tree_param":{"num_deleted":"0","num_feature":"12","num_nodes":"33","size_leaf_vector":"1"}},{"base_weights":[6.138674E-3,6.65758E-1,-5.43738E-1,8.143537E-1,5.7146557E-2,-9.38411E-2,-8.413596E-1,1.21431805E-1,8.008838E-2,-5.7114873E-2,6.686308E-2,-4.2965257E-1,2.6783895E-1,-7.988648E-2,-8.06686E-2,6.064043E-2,-1.1041969E-1,-1.0603737E-1,-6.5170065E-2,-1.6363256E-1,6.988726E-1,6.2508E-2,-6.511379E-2,5.455861E-1,-5.5955E-1,-5.6081545E-1,3.4833187E-1,1.7840174E-1,-5.1566042E-2,6.567386E-2,9.816463E-3,5.4623783E-2,5.230751E-3,-5.9530966E-2,-1.2248659E-2,-6.409131E-2,3.1729937E-3,4.40763E-2,-2.4364027E-3,-4.8252735E-2,5.6984495E-2],"categories":[],"categories_nodes":[],"categories_segments":[],"categories_sizes":[],"default_left":[0,0,0,0,0,0,0,0,0,0,0,0,0,0,0,0,0,0,0,0,0,0,0,0,0,0,0,0,0,0,0,0,0,0,0,0,0,0,0,0,0],"id":20,"left_children":[1,3,5,7,9,11,13,15,-1,-1,-1,17,19,-1,21,-1,23,25,-1,27,29,-1,-1,31,33,35,37,39,-1,-1,-1,-1,-1,-1,-1,-1,-1,-1,-1,-1,-1],"loss_changes":[2.4923107E1,2.7782946E0,4.9396286E0,4.266876E0,5.600555E0,2.064232E0,3.732874E0,1.3370495E0,0E0,0E0,0E0,1.1454471E0,1.6658851E0,0E0,5.173287E0,0E0,2.2899885E0,1.4665402E0,0E0,1.0149544E0,3.2347798E-1,0E0,0E0,2.3126882E-1,2.8723776E-1,6.487057E-1,3.5580996E-1,2.3075182E0,0E0,0E0,0E0,0E0,0E0,0E0,0E0,0E0,0E0,0E0,0E0,0E0,0E0],"parents":[2147483647,0,0,1,1,2,2,3,3,4,4,5,5,6,6,7,7,11,11,12,12,14,14,16,16,17,17,19,19,20,20,23,23,24,24,25,25,26,26,27,27],"right_children":[2,4,6,8,10,12,14,16,-1,-1,-1,18,20,-1,22,-1,24,26,-1,28,30,-1,-1,32,34,36,38,40,-1,-1,-1,-1,-1,-1,-1,-1,-1,-1,-1,-1,-1],"split_conditions":[1E0,5.95E2,1.58E2,1.61E2,6.47E2,5.9E0,5.99E2,2.5E0,8.008838E-2,-5.7114873E-2,6.686308E-2,2E1,2E0,-7.988648E-2,6.45E2,6.064043E-2,1E0,2E0,-6.5170065E-2,1.17E2,4.8E0,6.2508E-2,-6.511379E-2,6.8E0,2E0,5.5E0,5.4E0,3.2E1,-5.1566042E-2,6.567386E-2,9.816463E-3,5.4623783E-2,5.230751E-3,-5.9530966E-2,-1.2248659E-2,-6.409131E-2,3.1729937E-3,4.40763E-2,-2.4364027E-3,-4.8252735E-2,5.6984495E-2],"split_indices":[2,0,0,0,0,7,0,4,0,0,0,1,9,0,0,0,5,5,0,0,4,0,0,7,5,7,7,0,0,0,0,0,0,0,0,0,0,0,0,0,0],"split_type":[0,0,0,0,0,0,0,0,0,0,0,0,0,0,0,0,0,0,0,0,0,0,0,0,0,0,0,0,0,0,0,0,0,0,0,0,0,0,0,0,0],"sum_hessian":[6.671569E1,3.0235336E1,3.6480354E1,2.403019E1,6.2051473E0,1.5048195E1,2.143216E1,6.8325E0,1.719769E1,3.1760669E0,3.0290804E0,7.7056985E0,7.3424964E0,1.625093E1,5.1812277E0,1.0962819E0,5.736218E0,5.1517987E0,2.5539E0,3.979413E0,3.3630836E0,2.370895E0,2.810333E0,2.2439349E0,3.4922833E0,2.4576573E0,2.6941414E0,2.8066154E0,1.1727976E0,2.1517127E0,1.2113708E0,1.2379569E0,1.005978E0,1.5644091E0,1.9278742E0,1.3723905E0,1.0852668E0,1.3207823E0,1.3733591E0,1.1187325E0,1.687883E0],"tree_param":{"num_deleted":"0","num_feature":"12","num_nodes":"41","size_leaf_vector":"1"}},{"base_weights":[6.0164654E-3,6.5055555E-1,-5.2885264E-1,7.965685E-1,5.63302E-2,-9.185144E-2,-8.282319E-1,1.20195486E-1,7.910011E-2,-6.3714795E-2,7.8159565E-1,4.9897972E-2,-2.3891382E-1,-7.8884766E-2,-7.806918E-2,-2.1279404E-1,5.6812155E-1,6.564447E-2,1.8502826E-2,-4.1421795E-1,3.9863072E-2,6.111075E-2,-6.3708276E-2,1.1084356E-1,-5.0532337E-2,6.660164E-2,-4.2931805E-3,-5.3505503E-2,-8.387403E-1,-1.2745635E-2,3.135511E-2,2.4936302E-2,-5.1751766E-2,-2.3656834E-2,-7.496108E-2],"categories":[],"categories_nodes":[],"categories_segments":[],"categories_sizes":[],"default_left":[0,0,0,0,0,0,0,0,0,0,0,0,0,0,0,0,0,0,0,0,0,0,0,0,0,0,0,0,0,0,0,0,0,0,0],"id":21,"left_children":[1,3,5,7,9,11,13,15,-1,-1,17,-1,19,-1,21,23,25,-1,-1,27,-1,-1,-1,29,-1,-1,-1,31,33,-1,-1,-1,-1,-1,-1],"loss_changes":[2.269276E1,2.5448656E0,4.6310406E0,4.0427437E0,5.239018E0,1.9129524E0,3.477851E0,1.2731726E0,0E0,0E0,3.9157867E-3,0E0,2.1009874E0,0E0,4.7927847E0,8.4429926E-1,7.643603E-1,0E0,0E0,1.7783978E0,0E0,0E0,0E0,4.0657732E-1,0E0,0E0,0E0,2.0733836E0,1.390965E-1,0E0,0E0,0E0,0E0,0E0,0E0],"parents":[2147483647,0,0,1,1,2,2,3,3,4,4,5,5,6,6,7,7,10,10,12,12,14,14,15,15,16,16,19,19,23,23,27,27,28,28],"right_children":[2,4,6,8,10,12,14,16,-1,-1,18,-1,20,-1,22,24,26,-1,-1,28,-1,-1,-1,30,-1,-1,-1,32,34,-1,-1,-1,-1,-1,-1],"split_conditions":[1E0,5.95E2,1.58E2,1.61E2,6.45E2,4E0,5.99E2,2E0,7.910011E-2,-6.3714795E-2,7.2E1,4.9897972E-2,7.2E1,-7.8884766E-2,6.45E2,1.19E2,5E1,6.564447E-2,1.8502826E-2,4.3E1,3.9863072E-2,6.111075E-2,-6.3708276E-2,8E1,-5.0532337E-2,6.660164E-2,-4.2931805E-3,2E1,4.7E0,-1.2745635E-2,3.135511E-2,2.4936302E-2,-5.1751766E-2,-2.3656834E-2,-7.496108E-2],"split_indices":[2,0,0,0,0,4,0,9,0,0,3,0,3,0,0,0,3,0,0,3,0,0,0,0,0,0,0,1,4,0,0,0,0,0,0],"split_type":[0,0,0,0,0,0,0,0,0,0,0,0,0,0,0,0,0,0,0,0,0,0,0,0,0,0,0,0,0,0,0,0,0,0,0],"sum_hessian":[6.382697E1,2.8847849E1,3.4979122E1,2.2884224E1,5.9636254E0,1.4752231E1,2.0226892E1,6.7254014E0,1.6158821E1,2.575488E0,3.388137E0,1.826164E0,1.2926066E1,1.5273085E1,4.953807E0,4.1587267E0,2.5666745E0,2.341746E0,1.046391E0,1.0906675E1,2.0193906E0,2.2699692E0,2.6838374E0,2.8895664E0,1.2691604E0,1.4201826E0,1.1464919E0,6.5052586E0,4.4014173E0,1.7432163E0,1.1463501E0,4.34691E0,2.1583483E0,1.7303426E0,2.6710746E0],"tree_param":{"num_deleted":"0","num_feature":"12","num_nodes":"35","size_leaf_vector":"1"}},{"base_weights":[5.972967E-3,6.347131E-1,-5.130595E-1,7.776759E-1,5.6789346E-2,-7.632592E-2,-8.069659E-1,1.1635135E-1,7.816093E-2,-6.231736E-2,7.614869E-1,-4.1036922E-1,3.0381233E-1,-7.655791E-2,-7.556097E-2,5.832921E-2,-1.0991349E-1,6.413778E-2,1.788024E-2,-1.07398644E-1,-6.2583E-2,-7.561187E-2,6.504011E-1,5.9762266E-2,-6.2350858E-2,5.2079237E-1,-5.424515E-1,2.755702E-1,-4.6299785E-2,-4.617595E-2,2.7845445E-1,6.17E-2,9.783088E-3,5.1263077E-3,5.2803237E-2,-8.8331625E-3,-5.340635E-2,5.5155832E-2,-2.196069E-2,6.249625E-2,-3.172607E-2],"categories":[],"categories_nodes":[],"categories_segments":[],"categories_sizes":[],"default_left":[0,0,0,0,0,0,0,0,0,0,0,0,0,0,0,0,0,0,0,0,0,0,0,0,0,0,0,0,0,0,0,0,0,0,0,0,0,0,0,0,0],"id":22,"left_children":[1,3,5,7,9,11,13,15,-1,-1,17,19,21,-1,23,-1,25,-1,-1,27,-1,29,31,-1,-1,33,35,37,-1,-1,39,-1,-1,-1,-1,-1,-1,-1,-1,-1,-1],"loss_changes":[2.0616728E1,2.3158884E0,4.3813934E0,3.8701534E0,4.851168E0,2.032992E0,3.142025E0,1.2295059E0,0E0,0E0,5.9144497E-3,9.9276507E-1,1.0490977E0,0E0,4.444672E0,0E0,2.0754676E0,0E0,0E0,1.3538686E0,0E0,1.0368534E0,2.5795674E-1,0E0,0E0,2.158544E-1,2.3227513E-1,1.3008087E0,0E0,0E0,1.6843902E0,0E0,0E0,0E0,0E0,0E0,0E0,0E0,0E0,0E0,0E0],"parents":[2147483647,0,0,1,1,2,2,3,3,4,4,5,5,6,6,7,7,10,10,11,11,12,12,14,14,16,16,19,19,21,21,22,22,25,25,26,26,27,27,30,30],"right_children":[2,4,6,8,10,12,14,16,-1,-1,18,20,22,-1,24,-1,26,-1,-1,28,-1,30,32,-1,-1,34,36,38,-1,-1,40,-1,-1,-1,-1,-1,-1,-1,-1,-1,-1],"split_conditions":[1E0,5.95E2,1.52E2,1.61E2,6.45E2,5.9E0,5.99E2,2.5E0,7.816093E-2,-6.231736E-2,7.2E1,2E1,2E0,-7.655791E-2,6.45E2,5.832921E-2,1E0,6.413778E-2,1.788024E-2,5.7E0,-6.2583E-2,3.2E1,4.8E0,5.9762266E-2,-6.2350858E-2,1.19E2,2.2E1,7.8E1,-4.6299785E-2,-4.617595E-2,9.3E1,6.17E-2,9.783088E-3,5.1263077E-3,5.2803237E-2,-8.8331625E-3,-5.340635E-2,5.5155832E-2,-2.196069E-2,6.249625E-2,-3.172607E-2],"split_indices":[2,0,0,0,0,7,0,4,0,0,3,1,9,0,0,0,5,0,0,4,0,0,4,0,0,0,3,0,0,0,0,0,0,0,0,0,0,0,0,0,0],"split_type":[0,0,0,0,0,0,0,0,0,0,0,0,0,0,0,0,0,0,0,0,0,0,0,0,0,0,0,0,0,0,0,0,0,0,0,0,0,0,0,0,0],"sum_hessian":[6.1178394E1,2.75646E1,3.3613796E1,2.1821028E1,5.7435727E0,1.402817E1,1.9585625E1,6.6449127E0,1.5176114E1,2.4625206E0,3.2810519E0,7.424461E0,6.603709E0,1.4849228E1,4.7363977E0,1.0725702E0,5.572343E0,2.2442472E0,1.0368046E0,5.0615635E0,2.3628972E0,3.5257614E0,3.0779476E0,2.173382E0,2.5630157E0,2.1838787E0,3.388464E0,3.1531098E0,1.908454E0,1.1035713E0,2.4221902E0,1.8746822E0,1.2032655E0,1.0253372E0,1.1585414E0,1.4507678E0,1.9376962E0,1.5805281E0,1.5725816E0,1.2475357E0,1.1746545E0],"tree_param":{"num_deleted":"0","num_feature":"12","num_nodes":"41","size_leaf_vector":"1"}},{"base_weights":[6.680969E-3,6.205343E-1,-4.9771237E-1,7.609118E-1,5.719398E-2,-8.3504416E-2,-8.038098E-1,1.1620668E-1,7.726357E-2,-5.3232003E-2,6.3250616E-2,-2.0741415E-1,5.66022E-2,-7.703603E-2,-7.313731E-2,5.669067E-2,-1.03526905E-1,-2.0309206E-2,-5.7018805E-2,5.8458198E-2,-6.10368E-2,5.055767E-1,-5.2098215E-1,3.5726985E-1,-4.1682556E-1,4.9332487E-3,5.150057E-2,-5.578505E-2,-1.1866947E-2,-1.5426318E-2,5.3444225E-2,-5.6195423E-2,3.9624064E-3],"categories":[],"categories_nodes":[],"categories_segments":[],"categories_sizes":[],"default_left":[0,0,0,0,0,0,0,0,0,0,0,0,0,0,0,0,0,0,0,0,0,0,0,0,0,0,0,0,0,0,0,0,0],"id":23,"left_children":[1,3,5,7,9,11,13,15,-1,-1,-1,17,-1,-1,19,-1,21,23,-1,-1,-1,25,27,29,31,-1,-1,-1,-1,-1,-1,-1,-1],"loss_changes":[1.8763605E1,2.117733E0,4.1516256E0,3.664196E0,4.5375857E0,1.7410299E0,3.0283766E0,1.1392851E0,0E0,0E0,0E0,1.4405091E0,0E0,0E0,4.125785E0,0E0,1.915724E0,1.8772081E0,0E0,0E0,0E0,2.0572323E-1,2.3377037E-1,1.4370637E0,9.907998E-1,0E0,0E0,0E0,0E0,0E0,0E0,0E0,0E0],"parents":[2147483647,0,0,1,1,2,2,3,3,4,4,5,5,6,6,7,7,11,11,14,14,16,16,17,17,21,21,22,22,23,23,24,24],"right_children":[2,4,6,8,10,12,14,16,-1,-1,-1,18,-1,-1,20,-1,22,24,-1,-1,-1,26,28,30,32,-1,-1,-1,-1,-1,-1,-1,-1],"split_conditions":[1E0,5.95E2,1.58E2,1.61E2,6.47E2,7E0,5.99E2,2.5E0,7.726357E-2,-5.3232003E-2,6.3250616E-2,5.7E0,5.66022E-2,-7.703603E-2,6.45E2,5.669067E-2,1E0,2E1,-5.7018805E-2,5.8458198E-2,-6.10368E-2,1.19E2,2E0,2E0,6E0,4.9332487E-3,5.150057E-2,-5.578505E-2,-1.1866947E-2,-1.5426318E-2,5.3444225E-2,-5.6195423E-2,3.9624064E-3],"split_indices":[2,0,0,0,0,5,0,4,0,0,0,4,0,0,0,0,5,1,0,0,0,0,5,5,7,0,0,0,0,0,0,0,0],"split_type":[0,0,0,0,0,0,0,0,0,0,0,0,0,0,0,0,0,0,0,0,0,0,0,0,0,0,0,0,0,0,0,0,0],"sum_hessian":[5.860386E1,2.632984E1,3.227402E1,2.0796814E1,5.5330257E0,1.4255895E1,1.8018126E1,6.5487785E0,1.42480345E1,2.8498857E0,2.68314E0,1.3075512E1,1.1803823E0,1.3489248E1,4.5288777E0,1.0505493E0,5.498229E0,1.0543762E1,2.5317502E0,2.081085E0,2.4477928E0,2.1500404E0,3.3481889E0,5.451551E0,5.0922112E0,1.0247116E0,1.1253287E0,1.4234421E0,1.9247468E0,2.2723932E0,3.1791575E0,2.6330504E0,2.4591606E0],"tree_param":{"num_deleted":"0","num_feature":"12","num_nodes":"33","size_leaf_vector":"1"}},{"base_weights":[7.1403775E-3,-5.455391E-1,5.400665E-1,-1.2116005E-1,-8.636378E-1,7.00685E-1,3.1731557E-2,-4.4473854E-1,2.9299265E-1,-7.606575E-2,-7.554353E-2,1.4172707E-1,7.535049E-2,-3.74734E-1,4.7850576E-1,-2.322655E-2,-7.8008026E-1,-2.9638916E-2,6.243428E-1,4.6952117E-2,-5.0550245E-2,5.8831584E-2,-7.8635715E-2,3.6230604E-3,-5.254069E-2,-3.0756511E-3,5.6304593E-2,5.0910037E-2,-4.4079518E-1,-6.824937E-2,-2.089841E-2,7.2773183E-3,6.883196E-2,4.7828394E-1,-3.739718E-1,-4.8081443E-2,-5.3228117E-3,3.1651931E-3,5.111921E-2,-5.7448197E-2,-1.5057595E-3],"categories":[],"categories_nodes":[],"categories_segments":[],"categories_sizes":[],"default_left":[0,0,0,0,0,0,0,0,0,0,0,0,0,0,0,0,0,0,0,0,0,0,0,0,0,0,0,0,0,0,0,0,0,0,0,0,0,0,0,0,0],"id":24,"left_children":[1,3,5,7,9,11,13,15,17,-1,19,21,-1,23,25,27,29,-1,31,-1,-1,-1,33,-1,-1,-1,-1,-1,35,-1,-1,-1,-1,37,39,-1,-1,-1,-1,-1,-1],"loss_changes":[1.7129814E1,3.75033E0,2.3946762E0,1.9257307E0,1.8408804E0,3.6716728E0,1.6602281E0,1.1011511E0,1.7241724E0,0E0,1.9639069E0,1.3464395E0,0E0,6.996848E-1,6.423027E-1,1.6298295E0,3.1710148E-2,0E0,6.4759004E-1,0E0,0E0,0E0,1.4394542E0,0E0,0E0,0E0,0E0,0E0,2.102353E-1,0E0,0E0,0E0,0E0,2.4560428E-1,7.572638E-1,0E0,0E0,0E0,0E0,0E0,0E0],"parents":[2147483647,0,0,1,1,2,2,3,3,4,4,5,5,6,6,7,7,8,8,10,10,11,11,13,13,14,14,15,15,16,16,18,18,22,22,28,28,33,33,34,34],"right_children":[2,4,6,8,10,12,14,16,18,-1,20,22,-1,24,26,28,30,-1,32,-1,-1,-1,34,-1,-1,-1,-1,-1,36,-1,-1,-1,-1,38,40,-1,-1,-1,-1,-1,-1],"split_conditions":[2.1E1,1.58E2,5.93E2,6E0,5.99E2,1.61E2,6.5E2,8E0,5.6E1,-7.606575E-2,6.43E2,4.4E1,7.535049E-2,2E0,2.3E1,2.7E1,2E0,-2.9638916E-2,5.8E0,4.6952117E-2,-5.0550245E-2,5.8831584E-2,1E0,3.6230604E-3,-5.254069E-2,-3.0756511E-3,5.6304593E-2,5.0910037E-2,2E0,-6.824937E-2,-2.089841E-2,7.2773183E-3,6.883196E-2,4.2E1,2E0,-4.8081443E-2,-5.3228117E-3,3.1651931E-3,5.111921E-2,-5.7448197E-2,-1.5057595E-3],"split_indices":[1,0,0,5,0,0,0,11,0,0,0,0,0,5,1,3,9,0,7,0,0,0,5,0,0,0,0,0,9,0,0,0,0,3,5,0,0,0,0,0,0],"split_type":[0,0,0,0,0,0,0,0,0,0,0,0,0,0,0,0,0,0,0,0,0,0,0,0,0,0,0,0,0,0,0,0,0,0,0,0,0,0,0,0,0],"sum_hessian":[5.615808E1,2.7556505E1,2.8601576E1,1.2397608E1,1.5158897E1,2.1446678E1,7.1548977E0,6.9183965E0,5.479211E0,1.2486357E1,2.672541E0,8.07148E0,1.3375199E1,3.8308856E0,3.3240123E0,3.539119E0,3.3792775E0,1.7181493E0,3.7610617E0,1.2090782E0,1.4634627E0,1.4073181E0,6.6641617E0,2.0373054E0,1.7935802E0,1.4349257E0,1.8890865E0,1.0866362E0,2.4524827E0,2.0368078E0,1.3424698E0,1.8203404E0,1.9407213E0,2.0946994E0,4.5694623E0,1.1150843E0,1.3373984E0,1.0500247E0,1.0446746E0,1.6155386E0,2.9539237E0],"tree_param":{"num_deleted":"0","num_feature":"12","num_nodes":"41","size_leaf_vector":"1"}},{"base_weights":[7.033227E-3,-5.2956647E-1,5.239248E-1,-1.1716985E-1,-8.511039E-1,6.8361044E-1,3.0466855E-2,-4.295585E-1,2.8168893E-1,-7.521614E-2,-7.2913945E-2,1.3905956E-1,7.440412E-2,-3.6094415E-1,4.6382543E-1,-2.2383405E-2,-7.553336E-1,-2.833802E-2,6.0201085E-1,4.5932434E-2,-4.9459916E-2,5.7282817E-2,-7.4313976E-2,3.8823992E-2,-5.211629E-2,-2.940006E-3,5.508735E-2,4.9059775E-2,-4.2769125E-1,-6.640836E-2,-2.0039013E-2,6.927734E-3,6.690529E-2,4.6440804E-1,-3.605857E-1,-8.239531E-3,1.30273765E-2,-4.6977516E-2,-5.0937464E-3,3.0447154E-3,4.9855407E-2,-5.6090664E-2,-1.4212966E-3],"categories":[],"categories_nodes":[],"categories_segments":[],"categories_sizes":[],"default_left":[0,0,0,0,0,0,0,0,0,0,0,0,0,0,0,0,0,0,0,0,0,0,0,0,0,0,0,0,0,0,0,0,0,0,0,0,0,0,0,0,0,0,0],"id":25,"left_children":[1,3,5,7,9,11,13,15,17,-1,19,21,-1,23,25,27,29,-1,31,-1,-1,-1,33,35,-1,-1,-1,-1,37,-1,-1,-1,-1,39,41,-1,-1,-1,-1,-1,-1,-1,-1],"loss_changes":[1.5545281E1,3.5475378E0,2.2281237E0,1.7669363E0,1.7334795E0,3.4759836E0,1.52854E0,1.018271E0,1.5807817E0,0E0,1.8409064E0,1.2488735E0,0E0,6.6492426E-1,6.06882E-1,1.5134243E0,3.6833048E-2,0E0,6.119921E-1,0E0,0E0,0E0,1.3360986E0,8.169131E-2,0E0,0E0,0E0,0E0,2.0178717E-1,0E0,0E0,0E0,0E0,2.3337018E-1,7.1502036E-1,0E0,0E0,0E0,0E0,0E0,0E0,0E0,0E0],"parents":[2147483647,0,0,1,1,2,2,3,3,4,4,5,5,6,6,7,7,8,8,10,10,11,11,13,13,14,14,15,15,16,16,18,18,22,22,23,23,28,28,33,33,34,34],"right_children":[2,4,6,8,10,12,14,16,18,-1,20,22,-1,24,26,28,30,-1,32,-1,-1,-1,34,36,-1,-1,-1,-1,38,-1,-1,-1,-1,40,42,-1,-1,-1,-1,-1,-1,-1,-1],"split_conditions":[2.1E1,1.58E2,5.93E2,6E0,5.99E2,1.61E2,6.5E2,8E0,5.6E1,-7.521614E-2,6.43E2,4.4E1,7.440412E-2,2.3E1,2.3E1,2.7E1,2E0,-2.833802E-2,5.8E0,4.5932434E-2,-4.9459916E-2,5.7282817E-2,1E0,6.3E0,-5.211629E-2,-2.940006E-3,5.508735E-2,4.9059775E-2,2E0,-6.640836E-2,-2.0039013E-2,6.927734E-3,6.690529E-2,4.2E1,2E0,-8.239531E-3,1.30273765E-2,-4.6977516E-2,-5.0937464E-3,3.0447154E-3,4.9855407E-2,-5.6090664E-2,-1.4212966E-3],"split_indices":[1,0,0,5,0,0,0,11,0,0,0,0,0,1,1,3,9,0,7,0,0,0,5,4,0,0,0,0,9,0,0,0,0,3,5,0,0,0,0,0,0,0,0],"split_type":[0,0,0,0,0,0,0,0,0,0,0,0,0,0,0,0,0,0,0,0,0,0,0,0,0,0,0,0,0,0,0,0,0,0,0,0,0,0,0,0,0,0,0],"sum_hessian":[5.4046207E1,2.650554E1,2.7540668E1,1.2209859E1,1.4295682E1,2.0516176E1,7.0244923E0,6.803975E0,5.405884E0,1.1720904E1,2.5747771E0,7.943307E0,1.2572868E1,3.7786777E0,3.2458146E0,3.4991794E0,3.3047957E0,1.70853E0,3.697354E0,1.1670423E0,1.4077348E0,1.3656065E0,6.5777006E0,2.122052E0,1.6566257E0,1.4347008E0,1.8111136E0,1.0809753E0,2.418204E0,1.9666991E0,1.3380966E0,1.8192838E0,1.8780701E0,2.0665288E0,4.511172E0,1.0975657E0,1.0244864E0,1.0805192E0,1.3376848E0,1.0493053E0,1.0172235E0,1.5569971E0,2.9541748E0],"tree_param":{"num_deleted":"0","num_feature":"12","num_nodes":"43","size_leaf_vector":"1"}},{"base_weights":[6.934894E-3,5.763474E-1,-4.531627E-1,7.13428E-1,5.0763987E-2,-6.499105E-2,-7.529438E-1,1.1465814E-1,7.4803956E-2,-5.8618423E-2,5.35109E-2,-3.670212E-1,2.777883E-1,-7.297172E-2,-6.44591E-2,-1.879805E-1,5.16569E-1,-8.413189E-2,-5.879418E-2,-8.097958E-2,6.037186E-1,5.604986E-2,-5.839693E-2,7.719498E-2,-4.437955E-2,6.208817E-2,-6.5391543E-3,-4.9790472E-1,3.12572E-1,-4.288279E-2,2.5626937E-1,5.858238E-2,7.899921E-3,-1.5387069E-2,2.9799435E-2,4.7803493E-3,-5.8917988E-2,4.1409705E-2,-4.0621674E-3,5.7245824E-2,-2.9270483E-2],"categories":[],"categories_nodes":[],"categories_segments":[],"categories_sizes":[],"default_left":[0,0,0,0,0,0,0,0,0,0,0,0,0,0,0,0,0,0,0,0,0,0,0,0,0,0,0,0,0,0,0,0,0,0,0,0,0,0,0,0,0],"id":26,"left_children":[1,3,5,7,9,11,13,15,-1,-1,-1,17,19,-1,21,23,25,27,-1,29,31,-1,-1,33,-1,-1,-1,35,37,-1,39,-1,-1,-1,-1,-1,-1,-1,-1,-1,-1],"loss_changes":[1.4158492E1,1.7035093E0,3.4303274E0,3.1289225E0,3.9068377E0,1.564133E0,2.4784136E0,9.809039E-1,0E0,0E0,0E0,8.7031376E-1,8.890042E-1,0E0,3.558114E0,5.679488E-1,7.0888686E-1,1.1158355E0,0E0,8.58544E-1,2.6098216E-1,0E0,0E0,4.2761558E-1,0E0,0E0,0E0,5.7498986E-1,3.4624845E-1,0E0,1.3600343E0,0E0,0E0,0E0,0E0,0E0,0E0,0E0,0E0,0E0,0E0],"parents":[2147483647,0,0,1,1,2,2,3,3,4,4,5,5,6,6,7,7,11,11,12,12,14,14,15,15,16,16,17,17,19,19,20,20,23,23,27,27,28,28,30,30],"right_children":[2,4,6,8,10,12,14,16,-1,-1,-1,18,20,-1,22,24,26,28,-1,30,32,-1,-1,34,-1,-1,-1,36,38,-1,40,-1,-1,-1,-1,-1,-1,-1,-1,-1,-1],"split_conditions":[1E0,5.95E2,1.52E2,1.61E2,6.45E2,5.9E0,5.99E2,2E0,7.4803956E-2,-5.8618423E-2,5.35109E-2,2E1,2E0,-7.297172E-2,6.45E2,1.19E2,5E1,2E0,-5.879418E-2,3.2E1,4.8E0,5.604986E-2,-5.839693E-2,8E1,-4.437955E-2,6.208817E-2,-6.5391543E-3,2.5E1,5.4E0,-4.288279E-2,9.3E1,5.858238E-2,7.899921E-3,-1.5387069E-2,2.9799435E-2,4.7803493E-3,-5.8917988E-2,4.1409705E-2,-4.0621674E-3,5.7245824E-2,-2.9270483E-2],"split_indices":[2,0,0,0,0,7,0,9,0,0,0,1,9,0,0,0,3,5,0,0,4,0,0,0,0,0,0,3,7,0,0,0,0,0,0,0,0,0,0,0,0],"split_type":[0,0,0,0,0,0,0,0,0,0,0,0,0,0,0,0,0,0,0,0,0,0,0,0,0,0,0,0,0,0,0,0,0,0,0,0,0,0,0,0,0],"sum_hessian":[5.204615E1,2.3146988E1,2.8899162E1,1.8075266E1,5.071723E0,1.3123278E1,1.5775885E1,6.2660675E0,1.1809198E1,2.1686392E0,2.9030836E0,6.9387107E0,6.184567E0,1.1642286E1,4.133598E0,3.878125E0,2.3879428E0,4.849723E0,2.0889883E0,3.30173E0,2.882837E0,1.9128406E0,2.220757E0,2.8289273E0,1.0491978E0,1.3307247E0,1.057218E0,2.248927E0,2.6007957E0,1.0615231E0,2.2402067E0,1.7077721E0,1.1750649E0,1.6939738E0,1.1349535E0,1.0253905E0,1.2235365E0,1.2673862E0,1.3334094E0,1.1543953E0,1.0858115E0],"tree_param":{"num_deleted":"0","num_feature":"12","num_nodes":"41","size_leaf_vector":"1"}},{"base_weights":[6.6211456E-3,5.612834E-1,-4.395883E-1,8.755809E-2,7.147773E-1,-7.185646E-2,-7.5185E-1,-1.1944007E-1,4.8278335E-2,7.2915405E-2,4.7573198E-2,-1.8699534E-1,5.246237E-2,-7.37466E-2,-6.2376227E-2,2.8210598E-1,-4.7069657E-1,-5.7381447E-2,5.1850412E-2,-3.5171318E-1,3.1224245E-1,5.485629E-2,-5.7193846E-2,-2.105793E-2,5.5578806E-2,-5.5972863E-2,1.1873055E-3,-1.050049E-1,-6.739286E-2,-4.602734E-2,6.6595845E-2,1.7513085E-2,-3.2752797E-2],"categories":[],"categories_nodes":[],"categories_segments":[],"categories_sizes":[],"default_left":[0,0,0,0,0,0,0,0,0,0,0,0,0,0,0,0,0,0,0,0,0,0,0,0,0,0,0,0,0,0,0,0,0],"id":27,"left_children":[1,3,5,7,9,11,13,15,-1,-1,17,19,-1,-1,21,23,25,-1,-1,27,29,-1,-1,-1,-1,-1,-1,31,-1,-1,-1,-1,-1],"loss_changes":[1.2857159E1,1.6210866E0,3.252739E0,8.604156E-1,2.933507E0,1.4034748E0,2.4068384E0,9.513392E-1,0E0,0E0,3.6059206E0,1.2000448E0,0E0,0E0,3.3118353E0,1.069118E0,4.7715247E-1,0E0,0E0,1.3140082E0,2.5805836E0,0E0,0E0,0E0,0E0,0E0,0E0,1.0368462E0,0E0,0E0,0E0,0E0,0E0],"parents":[2147483647,0,0,1,1,2,2,3,3,4,4,5,5,6,6,7,7,10,10,11,11,14,14,15,15,16,16,19,19,20,20,27,27],"right_children":[2,4,6,8,10,12,14,16,-1,-1,18,20,-1,-1,22,24,26,-1,-1,28,30,-1,-1,-1,-1,-1,-1,32,-1,-1,-1,-1,-1],"split_conditions":[1E0,1.52E2,1.58E2,6.5E1,5.95E2,7E0,5.99E2,2.2E1,4.8278335E-2,7.2915405E-2,6.45E2,1.21E2,5.246237E-2,-7.37466E-2,6.45E2,2.9E0,7.3E0,-5.7381447E-2,5.1850412E-2,5.7E0,2E0,5.485629E-2,-5.7193846E-2,-2.105793E-2,5.5578806E-2,-5.5972863E-2,1.1873055E-3,4.3E1,-6.739286E-2,-4.602734E-2,6.6595845E-2,1.7513085E-2,-3.2752797E-2],"split_indices":[2,0,0,3,0,5,0,3,0,0,0,0,0,0,0,4,7,0,0,4,9,0,0,0,0,0,0,3,0,0,0,0,0],"split_type":[0,0,0,0,0,0,0,0,0,0,0,0,0,0,0,0,0,0,0,0,0,0,0,0,0,0,0,0,0,0,0,0,0],"sum_hessian":[4.995213E1,2.2154726E1,2.7797403E1,5.8060517E0,1.6348675E1,1.3329806E1,1.4467597E1,4.80346E0,1.0025918E0,1.1467155E1,4.8815193E0,1.2257695E1,1.0721111E0,1.051264E1,3.9549565E0,2.3331444E0,2.4703157E0,2.074418E0,2.8071012E0,9.438928E0,2.8187673E0,1.8327186E0,2.122238E0,1.2222826E0,1.1108617E0,1.23613E0,1.2341857E0,7.3259373E0,2.1129904E0,1.0553607E0,1.7634066E0,3.7722373E0,3.5537002E0],"tree_param":{"num_deleted":"0","num_feature":"12","num_nodes":"33","size_leaf_vector":"1"}},{"base_weights":[6.5644225E-3,-4.8533455E-1,4.8288214E-1,-1.0560636E-1,-8.17474E-1,6.3491035E-1,2.544866E-2,-3.9548206E-1,2.6272455E-1,-7.280672E-2,-6.580214E-2,1.3055255E-1,7.1938336E-2,-3.4309763E-1,4.3778473E-1,-1.2307352E-2,-7.053379E-1,-2.6040569E-2,5.58705E-1,4.2588994E-2,-4.595173E-2,5.4568745E-2,-7.39458E-2,4.476829E-3,-4.9320232E-2,-2.4450102E-3,5.166621E-2,4.6340987E-2,-4.0178478E-1,-6.289271E-2,-1.7546985E-2,5.7171322E-3,6.335957E-2,3.2730054E-2,-3.4274164E-1,-5.0317617E-3,-4.1957825E-2,-5.3274903E-2,-1.9792912E-3],"categories":[],"categories_nodes":[],"categories_segments":[],"categories_sizes":[],"default_left":[0,0,0,0,0,0,0,0,0,0,0,0,0,0,0,0,0,0,0,0,0,0,0,0,0,0,0,0,0,0,0,0,0,0,0,0,0,0,0],"id":28,"left_children":[1,3,5,7,9,11,13,15,17,-1,19,21,-1,23,25,27,29,-1,31,-1,-1,-1,33,-1,-1,-1,-1,-1,35,-1,-1,-1,-1,-1,37,-1,-1,-1,-1],"loss_changes":[1.1708217E1,3.0150366E0,1.7488866E0,1.4514982E0,1.4303398E0,2.9834404E0,1.2706227E0,8.772849E-1,1.3059247E0,0E0,1.480874E0,1.1032915E0,0E0,6.0345656E-1,4.8535174E-1,1.316936E0,6.180191E-2,0E0,5.6091845E-1,0E0,0E0,0E0,1.1524245E0,0E0,0E0,0E0,0E0,0E0,1.3643163E-1,0E0,0E0,0E0,0E0,0E0,6.032276E-1,0E0,0E0,0E0,0E0],"parents":[2147483647,0,0,1,1,2,2,3,3,4,4,5,5,6,6,7,7,8,8,10,10,11,11,13,13,14,14,15,15,16,16,18,18,22,22,28,28,34,34],"right_children":[2,4,6,8,10,12,14,16,18,-1,20,22,-1,24,26,28,30,-1,32,-1,-1,-1,34,-1,-1,-1,-1,-1,36,-1,-1,-1,-1,-1,38,-1,-1,-1,-1],"split_conditions":[2.1E1,1.58E2,5.93E2,6E0,5.99E2,1.61E2,6.5E2,8E0,5.6E1,-7.280672E-2,6.43E2,4.4E1,7.1938336E-2,2E0,2.3E1,2.7E1,2E0,-2.6040569E-2,5.8E0,4.2588994E-2,-4.595173E-2,5.4568745E-2,1E0,4.476829E-3,-4.9320232E-2,-2.4450102E-3,5.166621E-2,4.6340987E-2,6E0,-6.289271E-2,-1.7546985E-2,5.7171322E-3,6.335957E-2,3.2730054E-2,2E0,-5.0317617E-3,-4.1957825E-2,-5.3274903E-2,-1.9792912E-3],"split_indices":[1,0,0,5,0,0,0,11,0,0,0,0,0,5,1,3,9,0,7,0,0,0,5,0,0,0,0,0,7,0,0,0,0,0,5,0,0,0,0],"split_type":[0,0,0,0,0,0,0,0,0,0,0,0,0,0,0,0,0,0,0,0,0,0,0,0,0,0,0,0,0,0,0,0,0,0,0,0,0,0,0],"sum_hessian":[4.7970757E1,2.3590075E1,2.4380682E1,1.1621459E1,1.1968616E1,1.8007797E1,6.372884E0,6.4620914E0,5.159367E0,9.699263E0,2.2693532E0,7.5959086E0,1.0411889E1,3.4537961E0,2.919088E0,3.35408E0,3.1080115E0,1.6291248E0,3.5302424E0,1.0335206E0,1.2358325E0,1.2853756E0,6.310533E0,1.8695987E0,1.5841974E0,1.318777E0,1.6003109E0,1.0571476E0,2.2969322E0,1.8158113E0,1.2922003E0,1.7855104E0,1.744732E0,1.9619524E0,4.3485804E0,1.191965E0,1.1049674E0,1.4353526E0,2.9132278E0],"tree_param":{"num_deleted":"0","num_feature":"12","num_nodes":"39","size_leaf_vector":"1"}},{"base_weights":[6.177694E-3,-4.7042373E-1,4.6742776E-1,-1.0199419E-1,-8.0575913E-1,6.1792815E-1,2.4570439E-2,-2.648222E-1,3.839689E-2,-7.202721E-2,-6.3532196E-2,1.2618175E-1,7.104123E-2,-3.309579E-1,4.2490727E-1,5.9277188E-2,-6.1452425E-1,3.6617953E-2,-4.34623E-2,5.3208288E-2,-7.2362415E-2,4.0063583E-3,-4.915949E-2,-2.3408767E-3,5.0577305E-2,3.315903E-1,-3.762582E-2,-5.8043436E-3,-6.82052E-2,3.1375017E-2,-3.307794E-1,4.899982E-2,-2.8783405E-2,-4.209471E-2,7.57289E-3],"categories":[],"categories_nodes":[],"categories_segments":[],"categories_sizes":[],"default_left":[0,0,0,0,0,0,0,0,0,0,0,0,0,0,0,0,0,0,0,0,0,0,0,0,0,0,0,0,0,0,0,0,0,0,0],"id":29,"left_children":[1,3,5,7,9,11,13,15,-1,-1,17,19,-1,21,23,25,27,-1,-1,-1,29,-1,-1,-1,-1,31,-1,-1,-1,-1,33,-1,-1,-1,-1],"loss_changes":[1.0616333E1,2.853014E0,1.6200752E0,1.3817031E0,1.3495598E0,2.838945E0,1.1745906E0,1.2277586E0,0E0,0E0,1.1910893E0,1.033502E0,0E0,5.850413E-1,4.5965248E-1,1.1390017E0,7.4436057E-1,0E0,0E0,0E0,1.0557896E0,0E0,0E0,0E0,0E0,1.3759032E0,0E0,0E0,0E0,0E0,5.838388E-1,0E0,0E0,0E0,0E0],"parents":[2147483647,0,0,1,1,2,2,3,3,4,4,5,5,6,6,7,7,10,10,11,11,13,13,14,14,15,15,16,16,20,20,25,25,30,30],"right_children":[2,4,6,8,10,12,14,16,-1,-1,18,20,-1,22,24,26,28,-1,-1,-1,30,-1,-1,-1,-1,32,-1,-1,-1,-1,34,-1,-1,-1,-1],"split_conditions":[2.1E1,1.58E2,5.93E2,7.2E1,5.99E2,1.61E2,6.5E2,4.3E1,3.839689E-2,-7.202721E-2,6.5E2,4.4E1,7.104123E-2,2.3E1,2.3E1,5.7E0,4.7E0,3.6617953E-2,-4.34623E-2,5.3208288E-2,1E0,4.0063583E-3,-4.915949E-2,-2.3408767E-3,5.0577305E-2,2E1,-3.762582E-2,-5.8043436E-3,-6.82052E-2,3.1375017E-2,7.2E0,4.899982E-2,-2.8783405E-2,-4.209471E-2,7.57289E-3],"split_indices":[1,0,0,3,0,0,0,3,0,0,0,0,0,1,1,4,4,0,0,0,5,0,0,0,0,1,0,0,0,0,7,0,0,0,0],"split_type":[0,0,0,0,0,0,0,0,0,0,0,0,0,0,0,0,0,0,0,0,0,0,0,0,0,0,0,0,0,0,0,0,0,0,0],"sum_hessian":[4.6292587E1,2.2757637E1,2.3534948E1,1.1465152E1,1.1292486E1,1.7270449E1,6.2645E0,9.511295E0,1.9538559E0,9.102559E0,2.1899273E0,7.481323E0,9.789125E0,3.4097207E0,2.8547795E0,5.367374E0,4.143922E0,1.084211E0,1.1057163E0,1.2464383E0,6.2348843E0,1.9432751E0,1.4664456E0,1.318624E0,1.5361553E0,3.8885677E0,1.4788063E0,1.9161066E0,2.2278152E0,1.937336E0,4.2975483E0,2.7420428E0,1.146525E0,2.606267E0,1.6912813E0],"tree_param":{"num_deleted":"0","num_feature":"12","num_nodes":"35","size_leaf_vector":"1"}},{"base_weights":[5.7308837E-3,5.1662856E-1,-3.992026E-1,8.0703184E-2,6.7334855E-1,-6.4479426E-2,-7.1309644E-1,-1.9553752E-1,3.1082382E-2,7.044994E-2,3.9985634E-2,-1.7480202E-1,5.0121486E-2,-7.1472265E-2,-5.6316584E-2,-4.6958655E-2,1.6811472E-1,-5.514066E-2,4.924324E-2,-3.2865974E-1,2.986525E-1,5.2744538E-2,-5.493838E-2,1.9845918E-2,-7.248605E-4,2.8708203E-2,-4.663058E-1,5.3555954E-2,-1.6079776E-2,-1.7810142E-2,-6.358504E-2],"categories":[],"categories_nodes":[],"categories_segments":[],"categories_sizes":[],"default_left":[0,0,0,0,0,0,0,0,0,0,0,0,0,0,0,0,0,0,0,0,0,0,0,0,0,0,0,0,0,0,0],"id":30,"left_children":[1,3,5,7,9,11,13,15,-1,-1,17,19,-1,-1,21,-1,23,-1,-1,25,27,-1,-1,-1,-1,-1,29,-1,-1,-1,-1],"loss_changes":[9.663228E0,1.3562675E0,2.6925955E0,6.8914235E-1,2.4980578E0,1.2254136E0,2.0497355E0,7.767395E-1,0E0,0E0,3.1096563E0,1.0241233E0,0E0,0E0,2.8955593E0,0E0,5.596544E-2,0E0,0E0,1.1646023E0,9.292505E-1,0E0,0E0,0E0,0E0,0E0,5.746237E-1,0E0,0E0,0E0,0E0],"parents":[2147483647,0,0,1,1,2,2,3,3,4,4,5,5,6,6,7,7,10,10,11,11,14,14,16,16,19,19,20,20,26,26],"right_children":[2,4,6,8,10,12,14,16,-1,-1,18,20,-1,-1,22,-1,24,-1,-1,26,28,-1,-1,-1,-1,-1,30,-1,-1,-1,-1],"split_conditions":[1E0,1.52E2,1.58E2,7.2E0,5.95E2,7E0,5.99E2,3E0,3.1082382E-2,7.044994E-2,6.45E2,1.21E2,5.0121486E-2,-7.1472265E-2,6.45E2,-4.6958655E-2,4.9E0,-5.514066E-2,4.924324E-2,4.3E0,2E1,5.2744538E-2,-5.493838E-2,1.9845918E-2,-7.248605E-4,2.8708203E-2,5.7E0,5.3555954E-2,-1.6079776E-2,-1.7810142E-2,-6.358504E-2],"split_indices":[2,0,0,7,0,5,0,4,0,0,0,0,0,0,0,0,4,0,0,4,1,0,0,0,0,0,4,0,0,0,0],"split_type":[0,0,0,0,0,0,0,0,0,0,0,0,0,0,0,0,0,0,0,0,0,0,0,0,0,0,0,0,0,0,0],"sum_hessian":[4.471253E1,1.9647621E1,2.5064907E1,5.59626E0,1.4051361E1,1.2713347E1,1.235156E1,3.2884E0,2.3078604E0,9.555425E0,4.4959364E0,1.1711548E1,1.0017997E0,8.717E0,3.634559E0,1.1751895E0,2.1132104E0,1.9065696E0,2.589367E0,9.069933E0,2.641615E0,1.6928909E0,1.9416682E0,1.0531425E0,1.0600679E0,1.1816417E0,7.8882914E0,1.243165E0,1.39845E0,5.9448056E0,1.9434859E0],"tree_param":{"num_deleted":"0","num_feature":"12","num_nodes":"31","size_leaf_vector":"1"}},{"base_weights":[6.141616E-3,-4.405724E-1,4.3840542E-1,-9.214353E-2,-7.834387E-1,5.825599E-1,2.168134E-2,-2.4837135E-1,3.6657196E-2,-7.048807E-2,-6.0238626E-2,1.1590621E-1,6.94185E-2,-3.1809393E-1,4.0738925E-1,6.399847E-2,-5.886511E-1,3.4751747E-2,-4.1425914E-2,5.1108297E-2,-7.295012E-2,5.0010625E-3,-4.682162E-2,-2.06149E-3,4.848865E-2,3.162526E-1,-3.6518868E-2,-5.617601E-3,-6.581834E-2,2.9575033E-2,-3.1555754E-1,4.7024902E-2,-2.649082E-2,-5.1832765E-2,-3.3785106E-4],"categories":[],"categories_nodes":[],"categories_segments":[],"categories_sizes":[],"default_left":[0,0,0,0,0,0,0,0,0,0,0,0,0,0,0,0,0,0,0,0,0,0,0,0,0,0,0,0,0,0,0,0,0,0,0],"id":31,"left_children":[1,3,5,7,9,11,13,15,-1,-1,17,19,-1,21,23,25,27,-1,-1,-1,29,-1,-1,-1,-1,31,-1,-1,-1,-1,33,-1,-1,-1,-1],"loss_changes":[8.710378E0,2.5787678E0,1.36411E0,1.2230698E0,1.1933823E0,2.6121755E0,1.0376503E0,1.1249945E0,0E0,0E0,1.0375569E0,9.405304E-1,0E0,5.417971E-1,4.0082544E-1,1.0205287E0,6.755674E-1,0E0,0E0,0E0,9.35673E-1,0E0,0E0,0E0,0E0,1.2373459E0,0E0,0E0,0E0,0E0,6.120123E-1,0E0,0E0,0E0,0E0],"parents":[2147483647,0,0,1,1,2,2,3,3,4,4,5,5,6,6,7,7,10,10,11,11,13,13,14,14,15,15,16,16,20,20,25,25,30,30],"right_children":[2,4,6,8,10,12,14,16,-1,-1,18,20,-1,22,24,26,28,-1,-1,-1,30,-1,-1,-1,-1,32,-1,-1,-1,-1,34,-1,-1,-1,-1],"split_conditions":[2.1E1,1.58E2,5.93E2,7.2E1,5.99E2,1.61E2,6.5E2,4.3E1,3.6657196E-2,-7.048807E-2,6.5E2,4.4E1,6.94185E-2,2E0,2.3E1,2E1,4.7E0,3.4751747E-2,-4.1425914E-2,5.1108297E-2,1E0,5.0010625E-3,-4.682162E-2,-2.06149E-3,4.848865E-2,5.7E0,-3.6518868E-2,-5.617601E-3,-6.581834E-2,2.9575033E-2,2E0,4.7024902E-2,-2.649082E-2,-5.1832765E-2,-3.3785106E-4],"split_indices":[1,0,0,3,0,0,0,3,0,0,0,0,0,5,1,1,4,0,0,0,5,0,0,0,0,4,0,0,0,0,5,0,0,0,0],"split_type":[0,0,0,0,0,0,0,0,0,0,0,0,0,0,0,0,0,0,0,0,0,0,0,0,0,0,0,0,0,0,0,0,0,0,0],"sum_hessian":[4.310825E1,2.1190327E1,2.1917923E1,1.1139176E1,1.0051151E1,1.5989007E1,5.9289165E0,9.229464E0,1.9097135E0,8.01766E0,2.0334911E0,7.3405814E0,8.648425E0,3.245346E0,2.6835704E0,5.235399E0,3.9940643E0,1.0135307E0,1.0199604E0,1.1846962E0,6.155885E0,1.7847688E0,1.4605772E0,1.2660961E0,1.4174743E0,3.8832746E0,1.3521243E0,1.8909487E0,2.1031158E0,1.8900601E0,4.2658253E0,2.6955209E0,1.1877537E0,1.379039E0,2.8867862E0],"tree_param":{"num_deleted":"0","num_feature":"12","num_nodes":"35","size_leaf_vector":"1"}},{"base_weights":[5.2451873E-3,4.8580983E-1,-3.7273735E-1,7.253168E-2,6.46566E-1,-5.7871524E-2,-6.886381E-1,-1.9275904E-1,2.9644927E-2,6.88104E-2,3.442158E-2,4.1765906E-2,-1.7848013E-1,-6.9982454E-2,-5.198628E-2,-4.5284446E-2,1.6106397E-1,-4.5646526E-2,5.503824E-2,-3.302947E-1,3.306127E-2,5.1266562E-2,-5.334382E-2,1.8514927E-2,-3.0690164E-4,-3.0827668E-2,-6.9917315E-1,2.2504348E-2,-4.418765E-2,-6.4455695E-2,-1.5075351E-2],"categories":[],"categories_nodes":[],"categories_segments":[],"categories_sizes":[],"default_left":[0,0,0,0,0,0,0,0,0,0,0,0,0,0,0,0,0,0,0,0,0,0,0,0,0,0,0,0,0,0,0],"id":32,"left_children":[1,3,5,7,9,11,13,15,-1,-1,17,-1,19,-1,21,-1,23,-1,-1,25,-1,-1,-1,-1,-1,27,29,-1,-1,-1,-1],"loss_changes":[7.932295E0,1.2300882E0,2.3922322E0,6.3349104E-1,2.2423086E0,1.0882876E0,1.8368521E0,7.1456707E-1,0E0,0E0,2.8058648E0,0E0,1.2650977E0,0E0,2.6294775E0,0E0,4.4521376E-2,0E0,0E0,1.097988E0,0E0,0E0,0E0,0E0,0E0,1.4034517E0,1.8605995E-1,0E0,0E0,0E0,0E0],"parents":[2147483647,0,0,1,1,2,2,3,3,4,4,5,5,6,6,7,7,10,10,12,12,14,14,16,16,19,19,25,25,26,26],"right_children":[2,4,6,8,10,12,14,16,-1,-1,18,-1,20,-1,22,-1,24,-1,-1,26,-1,-1,-1,-1,-1,28,30,-1,-1,-1,-1],"split_conditions":[1E0,1.52E2,1.58E2,7.2E0,5.95E2,4E0,5.99E2,3E0,2.9644927E-2,6.88104E-2,6.47E2,4.1765906E-2,7.2E1,-6.9982454E-2,6.45E2,-4.5284446E-2,4.9E0,-4.5646526E-2,5.503824E-2,4.3E1,3.306127E-2,5.1266562E-2,-5.334382E-2,1.8514927E-2,-3.0690164E-4,2E1,2E0,2.2504348E-2,-4.418765E-2,-6.4455695E-2,-1.5075351E-2],"split_indices":[2,0,0,7,0,4,0,4,0,0,0,0,3,0,0,0,4,0,0,3,0,0,0,0,0,1,9,0,0,0,0],"split_type":[0,0,0,0,0,0,0,0,0,0,0,0,0,0,0,0,0,0,0,0,0,0,0,0,0,0,0,0,0,0,0],"sum_hessian":[4.1672318E1,1.8220991E1,2.3451326E1,5.5091195E0,1.2711871E1,1.233747E1,1.1113855E1,3.2446852E0,2.2644343E0,8.466303E0,4.245568E0,1.4302335E0,1.0907236E1,7.693915E0,3.419941E0,1.1741741E0,2.070511E0,2.2795725E0,1.9659954E0,9.134633E0,1.7726033E0,1.5990455E0,1.8208954E0,1.037018E0,1.0334933E0,5.6397114E0,3.4949222E0,3.8316047E0,1.8081064E0,2.0957012E0,1.399221E0],"tree_param":{"num_deleted":"0","num_feature":"12","num_nodes":"31","size_leaf_vector":"1"}},{"base_weights":[4.5620403E-3,-4.1547704E-1,4.1157404E-1,-8.895219E-2,-7.614584E-1,5.4863757E-1,2.1762557E-2,-3.5191247E-1,2.4486852E-1,-6.8960175E-2,-4.2923833E-3,1.0522301E-1,6.7800656E-2,-2.975254E-1,3.8823375E-1,2.2177633E-2,-6.68028E-1,-2.4552464E-2,5.252829E-1,4.9126305E-2,-7.555877E-2,5.2617076E-3,-4.6036016E-2,-1.9520903E-3,4.6341956E-2,4.2953335E-2,-3.3328152E-1,-5.9182297E-2,-1.6887354E-2,5.3050504E-3,5.9552476E-2,2.7838962E-2,-3.0533975E-1,-1.4208143E-3,-3.6994565E-2,-5.0880108E-2,-2.0621923E-5],"categories":[],"categories_nodes":[],"categories_segments":[],"categories_sizes":[],"default_left":[0,0,0,0,0,0,0,0,0,0,0,0,0,0,0,0,0,0,0,0,0,0,0,0,0,0,0,0,0,0,0,0,0,0,0,0,0],"id":33,"left_children":[1,3,5,7,9,11,13,15,17,-1,-1,19,-1,21,23,25,27,-1,29,-1,31,-1,-1,-1,-1,-1,33,-1,-1,-1,-1,-1,35,-1,-1,-1,-1],"loss_changes":[7.2174215E0,2.2799623E0,1.133323E0,1.1240617E0,1.0554314E0,2.397376E0,8.8982934E-1,8.454476E-1,1.1025649E0,0E0,0E0,8.614167E-1,0E0,5.20165E-1,3.5049444E-1,1.0098243E0,2.8167248E-2,0E0,4.6620786E-1,0E0,8.3643246E-1,0E0,0E0,0E0,0E0,0E0,1.5032417E-1,0E0,0E0,0E0,0E0,0E0,5.916379E-1,0E0,0E0,0E0,0E0],"parents":[2147483647,0,0,1,1,2,2,3,3,4,4,5,5,6,6,7,7,8,8,11,11,13,13,14,14,15,15,16,16,18,18,20,20,26,26,32,32],"right_children":[2,4,6,8,10,12,14,16,18,-1,-1,20,-1,22,24,26,28,-1,30,-1,32,-1,-1,-1,-1,-1,34,-1,-1,-1,-1,-1,36,-1,-1,-1,-1],"split_conditions":[2.1E1,1.58E2,5.93E2,6E0,5.99E2,1.61E2,6.5E2,8E0,5.6E1,-6.8960175E-2,-4.2923833E-3,4.4E1,6.7800656E-2,2.3E1,2.3E1,2.7E1,2E0,-2.4552464E-2,5.8E0,4.9126305E-2,1E0,5.2617076E-3,-4.6036016E-2,-1.9520903E-3,4.6341956E-2,4.2953335E-2,6E0,-5.9182297E-2,-1.6887354E-2,5.3050504E-3,5.9552476E-2,2.7838962E-2,2E0,-1.4208143E-3,-3.6994565E-2,-5.0880108E-2,-2.0621923E-5],"split_indices":[1,0,0,5,0,0,0,11,0,0,0,0,0,1,1,3,9,0,7,0,5,0,0,0,0,0,7,0,0,0,0,0,5,0,0,0,0],"split_type":[0,0,0,0,0,0,0,0,0,0,0,0,0,0,0,0,0,0,0,0,0,0,0,0,0,0,0,0,0,0,0,0,0,0,0,0,0],"sum_hessian":[4.021656E1,1.9781313E1,2.0435246E1,1.0823542E1,8.957772E0,1.4817683E1,5.6175632E0,6.024037E0,4.799505E0,7.0665693E0,1.8912023E0,7.1688447E0,7.648838E0,3.1025774E0,2.5149858E0,3.1848905E0,2.8391464E0,1.5233681E0,3.2761369E0,1.1248121E0,6.0440326E0,1.7945832E0,1.3079941E0,1.2132245E0,1.3017612E0,1.0097725E0,2.175118E0,1.6156535E0,1.2234929E0,1.6866417E0,1.5894953E0,1.8438299E0,4.200203E0,1.1108556E0,1.0642623E0,1.3389794E0,2.8612235E0],"tree_param":{"num_deleted":"0","num_feature":"12","num_nodes":"37","size_leaf_vector":"1"}},{"base_weights":[4.180822E-3,4.576915E-1,-3.4897327E-1,7.839971E-2,6.304612E-1,-4.4890493E-2,-6.527043E-1,-1.8266253E-1,4.3831575E-1,6.891046E-2,3.3917125E-2,-3.0947956E-1,2.549179E-1,-6.65981E-2,-4.9056128E-2,-2.8422344E-2,6.4022196E-3,-7.828381E-4,4.956761E-2,-5.213493E-2,4.6224095E-2,-4.4236213E-2,-5.3912293E-2,-1.9068835E-2,4.4742313E-1,5.019758E-2,-5.22006E-2,-3.187159E-2,2.944478E-1,6.1304487E-2,4.03508E-2,3.8182154E-2,-3.0751699E-3,-2.2765024E-2,3.310313E-2],"categories":[],"categories_nodes":[],"categories_segments":[],"categories_sizes":[],"default_left":[0,0,0,0,0,0,0,0,0,0,0,0,0,0,0,0,0,0,0,0,0,0,0,0,0,0,0,0,0,0,0,0,0,0,0],"id":34,"left_children":[1,3,5,7,9,11,13,15,17,-1,19,21,23,-1,25,-1,-1,-1,-1,-1,-1,27,-1,-1,29,-1,-1,-1,31,-1,33,-1,-1,-1,-1],"loss_changes":[6.5678024E0,1.1267796E0,2.1006536E0,7.1516675E-1,2.0656195E0,1.0782392E0,1.584507E0,2.7560902E-1,3.2011896E-1,0E0,2.555868E0,7.4384975E-1,7.4638927E-1,0E0,2.4518628E0,0E0,0E0,0E0,0E0,0E0,0E0,8.214794E-1,0E0,0E0,7.269491E-1,0E0,0E0,0E0,2.691932E-1,0E0,6.1035466E-1,0E0,0E0,0E0,0E0],"parents":[2147483647,0,0,1,1,2,2,3,3,4,4,5,5,6,6,7,7,8,8,10,10,11,11,12,12,14,14,21,21,24,24,28,28,30,30],"right_children":[2,4,6,8,10,12,14,16,18,-1,20,22,24,-1,26,-1,-1,-1,-1,-1,-1,28,-1,-1,30,-1,-1,-1,32,-1,34,-1,-1,-1,-1],"split_conditions":[1E0,1.61E2,1.52E2,2E0,5.95E2,5.9E0,5.99E2,2E0,1.17E2,6.891046E-2,6.45E2,2E1,3.2E1,-6.65981E-2,6.45E2,-2.8422344E-2,6.4022196E-3,-7.828381E-4,4.956761E-2,-5.213493E-2,4.6224095E-2,2E0,-5.3912293E-2,-1.9068835E-2,1.01E2,5.019758E-2,-5.22006E-2,-3.187159E-2,5.4E0,6.1304487E-2,2E0,3.8182154E-2,-3.0751699E-3,-2.2765024E-2,3.310313E-2],"split_indices":[2,0,0,9,0,7,0,5,0,0,0,1,0,0,0,0,0,0,0,0,0,5,0,0,0,0,0,0,7,0,5,0,0,0,0],"split_type":[0,0,0,0,0,0,0,0,0,0,0,0,0,0,0,0,0,0,0,0,0,0,0,0,0,0,0,0,0,0,0,0,0,0,0],"sum_hessian":[3.9010704E1,1.6949112E1,2.206159E1,5.759255E0,1.11898575E1,1.1597977E1,1.0463613E1,3.623479E0,2.135776E0,7.179411E0,4.010447E0,6.1437197E0,5.4542575E0,7.1902266E0,3.2733862E0,1.8526698E0,1.7708092E0,1.0241334E0,1.1116427E0,1.6950449E0,2.315402E0,4.4004593E0,1.7432604E0,1.4083847E0,4.045873E0,1.5347252E0,1.738661E0,1.9517516E0,2.4487076E0,1.5914733E0,2.4543996E0,1.1775615E0,1.2711459E0,1.4522107E0,1.002189E0],"tree_param":{"num_deleted":"0","num_feature":"12","num_nodes":"35","size_leaf_vector":"1"}},{"base_weights":[4.6294364E-3,3.8120174E-1,-3.9497977E-1,6.077636E-2,6.188419E-1,3.3370054E-1,-4.9903756E-1,-3.7180853E-1,4.415972E-1,6.816404E-2,3.0997446E-2,3.291349E-2,4.6696053E-3,-1.9959871E-1,-7.328218E-1,2.7061135E-2,-6.607273E-2,-1.3482255E-2,7.403798E-1,-5.1061954E-2,4.4757567E-2,-1.6784998E-2,-5.2344367E-2,-6.697462E-2,-1.9739915E-1,6.992187E-2,1.56061025E-2,-1.5352045E-1,2.8578477E-2,2.9760541E-2,-4.7316145E-2,1.3957259E-2,-3.1474225E-2],"categories":[],"categories_nodes":[],"categories_segments":[],"categories_sizes":[],"default_left":[0,0,0,0,0,0,0,0,0,0,0,0,0,0,0,0,0,0,0,0,0,0,0,0,0,0,0,0,0,0,0,0,0],"id":35,"left_children":[1,3,5,7,9,11,13,15,17,-1,19,-1,-1,21,23,-1,-1,-1,25,-1,-1,27,-1,-1,29,-1,-1,31,-1,-1,-1,-1,-1],"loss_changes":[5.969149E0,1.5169733E0,1.6261952E0,1.7790368E0,1.9516864E0,5.843571E-2,1.0609999E0,2.2323234E0,1.1857927E0,0E0,2.3683577E0,0E0,0E0,8.02314E-1,6.221719E-1,0E0,0E0,0E0,2.1712089E-1,0E0,0E0,4.6984717E-1,0E0,0E0,1.1332213E0,0E0,0E0,6.5117526E-1,0E0,0E0,0E0,0E0,0E0],"parents":[2147483647,0,0,1,1,2,2,3,3,4,4,5,5,6,6,7,7,8,8,10,10,13,13,14,14,18,18,21,21,24,24,27,27],"right_children":[2,4,6,8,10,12,14,16,18,-1,20,-1,-1,22,24,-1,-1,-1,26,-1,-1,28,-1,-1,30,-1,-1,32,-1,-1,-1,-1,-1],"split_conditions":[2E0,1.61E2,1E0,2E0,5.95E2,6.7E0,1.58E2,1E0,1.7E1,6.816404E-2,6.45E2,3.291349E-2,4.6696053E-3,5.4E0,5.95E2,2.7061135E-2,-6.607273E-2,-1.3482255E-2,5E1,-5.1061954E-2,4.4757567E-2,6.1E1,-5.2344367E-2,-6.697462E-2,6.5E2,6.992187E-2,1.56061025E-2,2.7E1,2.8578477E-2,2.9760541E-2,-4.7316145E-2,1.3957259E-2,-3.1474225E-2],"split_indices":[2,0,5,5,0,7,0,5,3,0,0,0,0,4,0,0,0,0,3,0,0,3,0,0,0,0,0,3,0,0,0,0,0],"split_type":[0,0,0,0,0,0,0,0,0,0,0,0,0,0,0,0,0,0,0,0,0,0,0,0,0,0,0,0,0,0,0,0,0],"sum_hessian":[3.766636E1,1.941586E1,1.8250498E1,8.802558E0,1.0613302E1,2.0047884E0,1.624571E1,4.132267E0,4.6702905E0,6.7413764E0,3.8719256E0,1.0004925E0,1.004296E0,7.935467E0,8.310244E0,1.8137892E0,2.3184779E0,1.6458534E0,3.024437E0,1.6245885E0,2.247337E0,6.5618854E0,1.3735814E0,5.882614E0,2.4276297E0,1.6706614E0,1.3537756E0,5.3404636E0,1.2214216E0,1.05967E0,1.3679599E0,2.4784489E0,2.8620148E0],"tree_param":{"num_deleted":"0","num_feature":"12","num_nodes":"33","size_leaf_vector":"1"}},{"base_weights":[4.558617E-3,-3.7597007E-1,3.7785098E-1,-7.65432E-2,-7.2481936E-1,7.1285665E-1,2.0016788E-1,-2.2135884E-1,3.347881E-2,-6.675536E-2,-3.8168018E-3,9.921058E-4,6.4208195E-2,3.7424E-1,-2.1621534E-1,5.2273665E-2,-5.2376765E-1,-9.840825E-2,5.975719E-2,-5.270306E-1,1.6167702E-2,-3.4246567E-1,4.3490148E-1,-2.7765753E-3,-6.1150804E-2,-4.787645E-2,1.8698499E-1,-1.2293738E-2,-4.7215253E-2,-5.6960378E-2,1.3372703E-2,-8.385815E-3,5.586091E-2,-1.313376E-2,3.9653998E-2],"categories":[],"categories_nodes":[],"categories_segments":[],"categories_sizes":[],"default_left":[0,0,0,0,0,0,0,0,0,0,0,0,0,0,0,0,0,0,0,0,0,0,0,0,0,0,0,0,0,0,0,0,0,0,0],"id":36,"left_children":[1,3,5,7,9,11,13,15,-1,-1,-1,-1,-1,17,19,21,23,25,-1,27,-1,29,31,-1,-1,-1,33,-1,-1,-1,-1,-1,-1,-1,-1],"loss_changes":[5.4594646E0,1.9331777E0,1.0118103E0,9.593094E-1,9.208703E-1,6.232331E-1,1.100276E0,8.19052E-1,0E0,0E0,0E0,0E0,0E0,2.1321466E0,7.551109E-1,1.0448681E0,6.276841E-1,1.0045053E0,0E0,1.1063933E-2,0E0,8.9095974E-1,6.682686E-1,0E0,0E0,0E0,6.5330166E-1,0E0,0E0,0E0,0E0,0E0,0E0,0E0,0E0],"parents":[2147483647,0,0,1,1,2,2,3,3,4,4,5,5,6,6,7,7,13,13,14,14,15,15,16,16,17,17,19,19,21,21,22,22,26,26],"right_children":[2,4,6,8,10,12,14,16,-1,-1,-1,-1,-1,18,20,22,24,26,-1,28,-1,30,32,-1,-1,-1,34,-1,-1,-1,-1,-1,-1,-1,-1],"split_conditions":[2.1E1,1.58E2,1E0,7.2E1,5.99E2,3.4E0,5.95E2,4.3E1,3.347881E-2,-6.675536E-2,-3.8168018E-3,9.921058E-4,6.4208195E-2,1.61E2,6.5E2,2.4E1,4.7E0,2E0,5.975719E-2,2.3E1,1.6167702E-2,5.8E0,2E0,-2.7765753E-3,-6.1150804E-2,-4.787645E-2,7.2E0,-1.2293738E-2,-4.7215253E-2,-5.6960378E-2,1.3372703E-2,-8.385815E-3,5.586091E-2,-1.313376E-2,3.9653998E-2],"split_indices":[1,0,5,3,0,4,0,3,0,0,0,0,0,0,0,3,4,5,0,1,0,7,5,0,0,0,7,0,0,0,0,0,0,0,0],"split_type":[0,0,0,0,0,0,0,0,0,0,0,0,0,0,0,0,0,0,0,0,0,0,0,0,0,0,0,0,0,0,0,0,0,0,0],"sum_hessian":[3.643373E1,1.803844E1,1.839529E1,1.0363006E1,7.6754346E0,5.3314195E0,1.3063872E1,8.567169E0,1.7958359E0,5.906418E0,1.7690165E0,1.0917557E0,4.2396636E0,9.283886E0,3.779986E0,4.9318037E0,3.6353657E0,4.7440834E0,4.5398026E0,2.0696125E0,1.7103734E0,2.479147E0,2.452657E0,1.7840717E0,1.8512939E0,1.2128006E0,3.531283E0,1.027813E0,1.0417995E0,1.1221869E0,1.3569602E0,1.1185836E0,1.3340734E0,1.9512779E0,1.580005E0],"tree_param":{"num_deleted":"0","num_feature":"12","num_nodes":"35","size_leaf_vector":"1"}},{"base_weights":[3.2588895E-3,4.1916984E-1,-3.1406882E-1,6.639613E-2,5.950496E-1,-4.3122124E-2,-6.2755674E-1,-1.7026839E-1,2.9827291E-2,6.6784486E-2,2.3136148E-2,3.9650682E-2,-1.587256E-1,-6.635626E-2,-4.7904827E-2,-2.6747575E-2,5.8021815E-3,-4.213526E-2,5.082796E-2,-2.9894638E-1,2.9920563E-2,4.8478734E-2,-5.0541975E-2,-3.294036E-2,-6.3010067E-1,2.0744378E-2,-4.184415E-2,-6.0330376E-2,-1.0776794E-2],"categories":[],"categories_nodes":[],"categories_segments":[],"categories_sizes":[],"default_left":[0,0,0,0,0,0,0,0,0,0,0,0,0,0,0,0,0,0,0,0,0,0,0,0,0,0,0,0,0],"id":37,"left_children":[1,3,5,7,9,11,13,15,-1,-1,17,-1,19,-1,21,-1,-1,-1,-1,23,-1,-1,-1,25,27,-1,-1,-1,-1],"loss_changes":[4.936566E0,9.646468E-1,1.7755258E0,5.781425E-1,1.7827897E0,9.07365E-1,1.4134021E0,2.3515163E-1,0E0,0E0,2.1658552E0,0E0,9.896972E-1,0E0,2.199428E0,0E0,0E0,0E0,0E0,8.131388E-1,0E0,0E0,0E0,1.1788367E0,2.3725796E-1,0E0,0E0,0E0,0E0],"parents":[2147483647,0,0,1,1,2,2,3,3,4,4,5,5,6,6,7,7,10,10,12,12,14,14,19,19,23,23,24,24],"right_children":[2,4,6,8,10,12,14,16,-1,-1,18,-1,20,-1,22,-1,-1,-1,-1,24,-1,-1,-1,26,28,-1,-1,-1,-1],"split_conditions":[1E0,1.61E2,1.58E2,2E0,5.95E2,4E0,5.99E2,2E0,2.9827291E-2,6.6784486E-2,6.47E2,3.9650682E-2,7.2E1,-6.635626E-2,6.45E2,-2.6747575E-2,5.8021815E-3,-4.213526E-2,5.082796E-2,4.3E1,2.9920563E-2,4.8478734E-2,-5.0541975E-2,2E1,2E0,2.0744378E-2,-4.184415E-2,-6.0330376E-2,-1.0776794E-2],"split_indices":[2,0,0,9,0,4,0,5,0,0,0,0,3,0,0,0,0,0,0,3,0,0,0,1,9,0,0,0,0],"split_type":[0,0,0,0,0,0,0,0,0,0,0,0,0,0,0,0,0,0,0,0,0,0,0,0,0,0,0,0,0],"sum_hessian":[3.5406387E1,1.5184123E1,2.0222263E1,5.5099535E0,9.67417E0,1.1457305E1,8.764959E0,3.4975467E0,2.0124066E0,6.011875E0,3.6622941E0,1.3259096E0,1.0131395E1,5.706584E0,3.0583754E0,1.7444756E0,1.7530711E0,2.0088544E0,1.6534398E0,8.4664955E0,1.6648993E0,1.4346333E0,1.6237422E0,5.304792E0,3.161704E0,3.6348214E0,1.6699706E0,1.8463194E0,1.3153845E0],"tree_param":{"num_deleted":"0","num_feature":"12","num_nodes":"29","size_leaf_vector":"1"}},{"base_weights":[2.9039031E-3,-3.5237193E-1,3.5320157E-1,-7.313502E-2,-6.989704E-1,6.851198E-1,1.7728157E-1,-3.0974928E-1,2.25151E-1,-6.519059E-2,-3.508048E-3,4.1684788E-4,6.2307417E-2,3.438033E-1,-2.1161884E-1,5.889794E-2,-4.7788925E-2,-2.3171827E-2,4.8803154E-1,-1.0000566E-1,5.7737693E-2,-3.801923E-2,1.5120463E-2,3.4248747E-2,-2.5642266E-2,3.9485283E-3,5.6114595E-2,-4.6478298E-2,1.7196418E-1,-1.2780113E-2,3.7403412E-2],"categories":[],"categories_nodes":[],"categories_segments":[],"categories_sizes":[],"default_left":[0,0,0,0,0,0,0,0,0,0,0,0,0,0,0,0,0,0,0,0,0,0,0,0,0,0,0,0,0,0,0],"id":38,"left_children":[1,3,5,7,9,11,13,15,17,-1,-1,-1,-1,19,21,23,-1,-1,25,27,-1,-1,-1,-1,-1,-1,-1,-1,29,-1,-1],"loss_changes":[4.512373E0,1.6914711E0,9.443352E-1,8.5234576E-1,8.383217E-1,5.8664274E-1,9.327003E-1,8.3472943E-1,9.207799E-1,0E0,0E0,0E0,0E0,1.907014E0,6.635416E-1,7.973113E-1,0E0,0E0,4.2081153E-1,9.016986E-1,0E0,0E0,0E0,0E0,0E0,0E0,0E0,0E0,5.8566713E-1,0E0,0E0],"parents":[2147483647,0,0,1,1,2,2,3,3,4,4,5,5,6,6,7,7,8,8,13,13,14,14,15,15,18,18,19,19,28,28],"right_children":[2,4,6,8,10,12,14,16,18,-1,-1,-1,-1,20,22,24,-1,-1,26,28,-1,-1,-1,-1,-1,-1,-1,-1,30,-1,-1],"split_conditions":[2.1E1,1.58E2,1E0,6E0,5.99E2,3.4E0,5.95E2,8E0,5.6E1,-6.519059E-2,-3.508048E-3,4.1684788E-4,6.2307417E-2,1.61E2,6.5E2,1.01E2,-4.7788925E-2,-2.3171827E-2,5.8E0,2E0,5.7737693E-2,-3.801923E-2,1.5120463E-2,3.4248747E-2,-2.5642266E-2,3.9485283E-3,5.6114595E-2,-4.6478298E-2,7.2E0,-1.2780113E-2,3.7403412E-2],"split_indices":[1,0,5,5,0,4,0,11,0,0,0,0,0,0,0,0,0,0,7,5,0,0,0,0,0,0,0,0,7,0,0],"split_type":[0,0,0,0,0,0,0,0,0,0,0,0,0,0,0,0,0,0,0,0,0,0,0,0,0,0,0,0,0,0,0],"sum_hessian":[3.425781E1,1.7005112E1,1.7252697E1,1.0088403E1,6.916709E0,4.973817E0,1.2278879E1,5.604346E0,4.484057E0,5.2211394E0,1.6955699E0,1.0610894E0,3.9127278E0,8.67873E0,3.6001499E0,3.022058E0,2.582288E0,1.4212162E0,3.0628405E0,4.625496E0,4.0532336E0,1.9674194E0,1.6327306E0,1.4468408E0,1.5752172E0,1.5953588E0,1.4674816E0,1.1497835E0,3.4757123E0,1.9309552E0,1.5447572E0],"tree_param":{"num_deleted":"0","num_feature":"12","num_nodes":"31","size_leaf_vector":"1"}},{"base_weights":[2.887857E-3,3.373845E-1,-3.4839538E-1,4.128232E-2,5.6714976E-1,2.5469001E-2,-4.5138946E-1,-4.119208E-1,4.0234908E-1,6.361951E-2,2.084874E-2,-1.8444403E-1,-6.8154883E-1,1.8612118E-2,-6.2147368E-2,-8.633876E-3,5.5776484E-2,-4.0476475E-2,4.9197506E-2,-4.3964945E-2,1.983043E-2,-6.386527E-2,-1.82599E-1,3.0277371E-2,-2.3803127E-1,2.897527E-2,-4.552349E-2,-5.5806607E-2,1.6151791E-2],"categories":[],"categories_nodes":[],"categories_segments":[],"categories_sizes":[],"default_left":[0,0,0,0,0,0,0,0,0,0,0,0,0,0,0,0,0,0,0,0,0,0,0,0,0,0,0,0,0],"id":39,"left_children":[1,3,5,7,9,-1,11,13,15,-1,17,19,21,-1,-1,-1,-1,-1,-1,-1,23,-1,25,-1,27,-1,-1,-1,-1],"loss_changes":[4.1547785E0,1.208534E0,1.3756394E0,1.6368755E0,1.5360737E0,0E0,8.2254624E-1,1.4380918E0,1.0587878E0,0E0,1.9427274E0,7.1059144E-1,5.159881E-1,0E0,0E0,0E0,0E0,0E0,0E0,0E0,7.507169E-1,0E0,1.0275962E0,0E0,1.21224E0,0E0,0E0,0E0,0E0],"parents":[2147483647,0,0,1,1,2,2,3,3,4,4,6,6,7,7,8,8,10,10,11,11,12,12,20,20,22,22,24,24],"right_children":[2,4,6,8,10,-1,12,14,16,-1,18,20,22,-1,-1,-1,-1,-1,-1,-1,24,-1,26,-1,28,-1,-1,-1,-1],"split_conditions":[2E0,1.52E2,1E0,2E0,5.95E2,2.5469001E-2,1.58E2,1E0,2.9E0,6.361951E-2,6.47E2,5.8E0,5.95E2,1.8612118E-2,-6.2147368E-2,-8.633876E-3,5.5776484E-2,-4.0476475E-2,4.9197506E-2,-4.3964945E-2,2.7E1,-6.386527E-2,6.5E2,3.0277371E-2,4.9E1,2.897527E-2,-4.552349E-2,-5.5806607E-2,1.6151791E-2],"split_indices":[2,0,5,5,0,0,0,5,4,0,0,7,0,0,0,0,0,0,0,0,3,0,0,0,3,0,0,0,0],"split_type":[0,0,0,0,0,0,0,0,0,0,0,0,0,0,0,0,0,0,0,0,0,0,0,0,0,0,0,0,0],"sum_hessian":[3.3358555E1,1.710782E1,1.6250732E1,7.9902854E0,9.117537E0,1.8169152E0,1.4433817E1,3.4806304E0,4.509655E0,5.6549387E0,3.4625976E0,7.5168896E0,6.9169273E0,1.5035064E0,1.977124E0,2.055802E0,2.4538527E0,1.9191098E0,1.5434877E0,1.9035105E0,5.613379E0,4.6321387E0,2.2847888E0,2.0283294E0,3.5850496E0,1.0144444E0,1.2703446E0,1.3911378E0,2.1939116E0],"tree_param":{"num_deleted":"0","num_feature":"12","num_nodes":"29","size_leaf_vector":"1"}},{"base_weights":[1.7306281E-3,3.2674557E-1,-3.3777902E-1,4.5527086E-2,5.65204E-1,2.4301575E-2,-4.3920943E-1,-3.6031303E-1,3.8341674E-1,6.463924E-2,2.1920996E-2,-1.7914873E-1,-6.6996914E-1,2.2057801E-2,-6.158492E-2,-1.357185E-2,6.6961765E-1,-4.740615E-2,4.088822E-2,-1.0180799E-2,-4.850036E-2,-6.30433E-2,-1.7770652E-1,6.478406E-2,1.1889682E-2,-2.0451006E-1,2.3652145E-1,2.4929047E-2,-4.3593436E-2,1.1214153E-2,-4.970898E-2,-1.7775156E-2,5.0000835E-2],"categories":[],"categories_nodes":[],"categories_segments":[],"categories_sizes":[],"default_left":[0,0,0,0,0,0,0,0,0,0,0,0,0,0,0,0,0,0,0,0,0,0,0,0,0,0,0,0,0,0,0,0,0],"id":40,"left_children":[1,3,5,7,9,-1,11,13,15,-1,17,19,21,-1,-1,-1,23,-1,-1,25,-1,-1,27,-1,-1,29,31,-1,-1,-1,-1,-1,-1],"loss_changes":[3.7924263E0,1.1515821E0,1.270845E0,1.3919942E0,1.498147E0,0E0,7.8028464E-1,1.6496992E0,1.0053462E0,0E0,1.8334128E0,6.5843356E-1,4.8755312E-1,0E0,0E0,0E0,2.4461603E-1,0E0,0E0,3.9352688E-1,0E0,0E0,8.5601723E-1,0E0,0E0,8.3950895E-1,8.986168E-1,0E0,0E0,0E0,0E0,0E0,0E0],"parents":[2147483647,0,0,1,1,2,2,3,3,4,4,6,6,7,7,8,8,10,10,11,11,12,12,16,16,19,19,22,22,25,25,26,26],"right_children":[2,4,6,8,10,-1,12,14,16,-1,18,20,22,-1,-1,-1,24,-1,-1,26,-1,-1,28,-1,-1,30,32,-1,-1,-1,-1,-1,-1],"split_conditions":[2E0,1.61E2,1E0,2E0,5.95E2,2.4301575E-2,1.58E2,1E0,1.7E1,6.463924E-2,6.45E2,5.4E0,5.95E2,2.2057801E-2,-6.158492E-2,-1.357185E-2,5E1,-4.740615E-2,4.088822E-2,4.9E1,-4.850036E-2,-6.30433E-2,6.57E2,6.478406E-2,1.1889682E-2,2.7E1,2E0,2.4929047E-2,-4.3593436E-2,1.1214153E-2,-4.970898E-2,-1.7775156E-2,5.0000835E-2],"split_indices":[2,0,5,5,0,0,0,5,3,0,0,4,0,0,0,0,3,0,0,3,0,0,0,0,0,3,9,0,0,0,0,0,0],"split_type":[0,0,0,0,0,0,0,0,0,0,0,0,0,0,0,0,0,0,0,0,0,0,0,0,0,0,0,0,0,0,0,0,0],"sum_hessian":[3.236839E1,1.6556414E1,1.5811975E1,8.143525E0,8.412889E0,1.8097088E0,1.4002266E1,3.6695983E0,4.4739265E0,5.062301E0,